DATE: 2023-02-26 UNITS: metal CONTRIBUTOR: Xiaowang Zhou xzhou@sandia.gov, Lucas Hale lucas.hale@nist.gov, and Germain Clavier g.m.g.c.clavier@tue.nl/germain.clavier@gmail.com
 CITATION: X. W. Zhou, R. A. Johnson, H. N. G. Wadley, Phys. Rev. B, 69, 144113(2004)
Generated by create_eam.py
3     Al V Ti                 
2000  6.6416665133030892e-02   2000  3.2818095194013328e-03   6.5603372292832640e+00  
   13        26.98154         4.05020      fcc
   0.0000000000000000E+00  -2.5037159079564164E-02  -4.9927250203294582E-02  -7.4671692888368169E-02  -9.9270906651963253E-02
  -1.2372531101125639E-01  -1.4803532548342724E-01  -1.7220136958565058E-01  -1.9622386283510607E-01  -2.2010322474897026E-01
  -2.4383987484442216E-01  -2.6743423263863741E-01  -2.9088671764879415E-01  -3.1419774939207068E-01  -3.3736774738564401E-01
  -3.6039713114669159E-01  -3.8328632019239106E-01  -4.0603573403992099E-01  -4.2864579220645749E-01  -4.5111691420917832E-01
  -4.7344951956526204E-01  -4.9564402779188499E-01  -5.1770085840622637E-01  -5.3962043092546175E-01  -5.6140316486677022E-01
  -5.8304947974732924E-01  -6.0455979508431512E-01  -6.2593453039490665E-01  -6.4717410519628027E-01  -6.6827893900561530E-01
  -6.8924945134008864E-01  -7.1008606171687616E-01  -7.3078918965315753E-01  -7.5135925466610975E-01  -7.7179667627290971E-01
  -7.9210187399073584E-01  -8.1227526733676514E-01  -8.3231727582817516E-01  -8.5222831898214391E-01  -8.7200881631584881E-01
  -8.9165918734646687E-01  -9.1117985159117731E-01  -9.3057122856715568E-01  -9.4983373779157998E-01  -9.6896779878162909E-01
  -9.8797383105447900E-01  -1.0068522541273082E+00  -1.0256034875172935E+00  -1.0442279507416137E+00  -1.0627260633174460E+00
  -1.0810982447619666E+00  -1.0993449145923544E+00  -1.1174664923257867E+00  -1.1354633974794412E+00  -1.1533360495704947E+00
  -1.1710848681161263E+00  -1.1887102726335117E+00  -1.2062126826398298E+00  -1.2235925176522575E+00  -1.2408501971879726E+00
  -1.2579861407641535E+00  -1.2750007678979758E+00  -1.2918944981066187E+00  -1.3086677509072602E+00  -1.3253209458170754E+00
  -1.3418545023532440E+00  -1.3582688400329428E+00  -1.3745643783733499E+00  -1.3907415368916425E+00  -1.4068007351049983E+00
  -1.4227423925305946E+00  -1.4385669286856089E+00  -1.4542747630872190E+00  -1.4698663152526026E+00  -1.4853420046989370E+00
  -1.5007022509434007E+00  -1.5159474735031693E+00  -1.5310780918954221E+00  -1.5460945256373355E+00  -1.5609971942460885E+00
  -1.5757865172388570E+00  -1.5904629141328201E+00  -1.6050268044451548E+00  -1.6194786076930374E+00  -1.6338187433936477E+00
  -1.6480476310641614E+00  -1.6621656902217574E+00  -1.6761733403836128E+00  -1.6900710010669040E+00  -1.7038590917888110E+00
  -1.7175380320665088E+00  -1.7311082414171768E+00  -1.7445701393579915E+00  -1.7579241454061318E+00  -1.7711706790787733E+00
  -1.7843101598930955E+00  -1.7973430073662746E+00  -1.8102696410154886E+00  -1.8230904803579155E+00  -1.8358059449107322E+00
  -1.8484164541911166E+00  -1.8609224277162464E+00  -1.8733242850032983E+00  -1.8856224455694521E+00  -1.8978173289318820E+00
  -1.9099093546077688E+00  -1.9218989421142876E+00  -1.9337865109686179E+00  -1.9455724806879364E+00  -1.9572572707894205E+00
  -1.9688413007902474E+00  -1.9803249902075957E+00  -1.9917087585586422E+00  -2.0029930253605648E+00  -2.0141782101305412E+00
  -2.0252647323857489E+00  -2.0362530116433648E+00  -2.0471434674205677E+00  -2.0579365192345334E+00  -2.0686325866024418E+00
  -2.0792320890414691E+00  -2.0897354460687918E+00  -2.1001430772015897E+00  -2.1104554019570387E+00  -2.1206728398523174E+00
  -2.1307958104046025E+00  -2.1408247331310726E+00  -2.1507600275489045E+00  -2.1606021131752757E+00  -2.1703514095273642E+00
  -2.1800083361223468E+00  -2.1895733124774024E+00  -2.1990467581097075E+00  -2.2084290925364405E+00  -2.2177207352747779E+00
  -2.2269221058418975E+00  -2.2360336237549778E+00  -2.2450557085311953E+00  -2.2539887796877287E+00  -2.2628332567417546E+00
  -2.2715895592104500E+00  -2.2802581066109946E+00  -2.2888393184605635E+00  -2.2973336142763365E+00  -2.3057414135754897E+00
  -2.3140631358752008E+00  -2.3222992006926479E+00  -2.3304500275450084E+00  -2.3385160359494597E+00  -2.3464976454231796E+00
  -2.3543952754833457E+00  -2.3622093456471340E+00  -2.3699402754317251E+00  -2.3775884843542947E+00  -2.3851543919320202E+00
  -2.3926384176820799E+00  -2.4000409811216503E+00  -2.4073625017679103E+00  -2.4146033991380369E+00  -2.4217640927492066E+00
  -2.4288450021185999E+00  -2.4358465467633907E+00  -2.4427691462007588E+00  -2.4496132199478815E+00  -2.4563791875219367E+00
  -2.4630674684401002E+00  -2.4696784822195519E+00  -2.4762126483774680E+00  -2.4826703864310260E+00  -2.4890521158974037E+00
  -2.4953582562937791E+00  -2.5015892271373295E+00  -2.5077454479452328E+00  -2.5138273382346652E+00  -2.5198353175228059E+00
  -2.5257698053268314E+00  -2.5316312211639200E+00  -2.5374199845512484E+00  -2.5431365150059952E+00  -2.5487812320453376E+00
  -2.5543545551864528E+00  -2.5598569039465184E+00  -2.5652886978427123E+00  -2.5706503563922123E+00  -2.5759422991121954E+00
  -2.5811649455198391E+00  -2.5863187151323213E+00  -2.5914040274668197E+00  -2.5964213020405116E+00  -2.6013709583705746E+00
  -2.6062534159741864E+00  -2.6110690943685246E+00  -2.6158184130707665E+00  -2.6205017915980897E+00  -2.6251196494676718E+00
  -2.6296724061966907E+00  -2.6341604813023234E+00  -2.6385842943017481E+00  -2.6429442647121419E+00  -2.6472408120506827E+00
  -2.6514743558345479E+00  -2.6556453155809150E+00  -2.6597541108069613E+00  -2.6638011610298649E+00  -2.6677868857668030E+00
  -2.6717117045349537E+00  -2.6755760368514938E+00  -2.6793803022336018E+00  -2.6831249201984537E+00  -2.6868103102632293E+00
  -2.6904368919451045E+00  -2.6940050847612564E+00  -2.6975153082288643E+00  -2.7009679818651047E+00  -2.7043635251871558E+00
  -2.7077023577121944E+00  -2.7109848989573990E+00  -2.7142115684399464E+00  -2.7173827856770143E+00  -2.7204989701857802E+00
  -2.7235605414834221E+00  -2.7265679190871168E+00  -2.7295215225140428E+00  -2.7324217712813770E+00  -2.7352690849062973E+00
  -2.7380638829059811E+00  -2.7408065847976064E+00  -2.7434976100983497E+00  -2.7461373783253897E+00  -2.7487263089959035E+00
  -2.7512648216270685E+00  -2.7537533357360631E+00  -2.7561922708400637E+00  -2.7585820464562483E+00  -2.7609230821017947E+00
  -2.7632157972938804E+00  -2.7654606115496829E+00  -2.7676579443863800E+00  -2.7698082153211487E+00  -2.7719118438711670E+00
  -2.7739692495536121E+00  -2.7759808518856617E+00  -2.7779470703844944E+00  -2.7798683245672864E+00  -2.7817450339512155E+00
  -2.7835776180534597E+00  -2.7853664963911959E+00  -2.7871120884816030E+00  -2.7888148138418574E+00  -2.7904750919891370E+00
  -2.7920933424406189E+00  -2.7936699847134809E+00  -2.7952054383249019E+00  -2.7967001227920574E+00  -2.7981544576321267E+00
  -2.7995688623622859E+00  -2.8009437564997133E+00  -2.8022795595615868E+00  -2.8035766910650830E+00  -2.8048355705273802E+00
  -2.8060566174656558E+00  -2.8072402513970882E+00  -2.8083865622040145E+00  -2.8094967009592358E+00  -2.8105708444519215E+00
  -2.8116095065159463E+00  -2.8126132009851843E+00  -2.8135824416935118E+00  -2.8145177424748042E+00  -2.8154196171629362E+00
  -2.8162885795917827E+00  -2.8171251435952191E+00  -2.8179298230071215E+00  -2.8187031316613638E+00  -2.8194455833918224E+00
  -2.8201576920323710E+00  -2.8208399714168859E+00  -2.8214929353792417E+00  -2.8221170977533143E+00  -2.8227129723729787E+00
  -2.8232810730721090E+00  -2.8238219136845819E+00  -2.8243360080442721E+00  -2.8248238699850545E+00  -2.8252860133408038E+00
  -2.8257229519453966E+00  -2.8261351996327071E+00  -2.8265232702366108E+00  -2.8268876775909830E+00  -2.8272289355296980E+00
  -2.8275475578866320E+00  -2.8278440584956601E+00  -2.8281189511906573E+00  -2.8283727498054985E+00  -2.8286059681740592E+00
  -2.8288191201302144E+00  -2.8290127195078401E+00  -2.8291872801408102E+00  -2.8293433158630008E+00  -2.8294813405082868E+00
  -2.8296018679105428E+00  -2.8297054119036456E+00  -2.8297924863214683E+00  -2.8298636049978882E+00  -2.8299192817667791E+00
  -2.8299600304620163E+00  -2.8299863649174752E+00  -2.8299987989670314E+00  -2.8299978464445594E+00  -2.8299840211839351E+00
  -2.8299578370190330E+00  -2.8299198077837286E+00  -2.8298704473118974E+00  -2.8298102694374139E+00  -2.8297397879941539E+00
  -2.8296595168159926E+00  -2.8295699697368044E+00  -2.8294716605904657E+00  -2.8293651032108507E+00  -2.8292508114318351E+00
  -2.8291292990872936E+00  -2.8290010800111021E+00  -2.8288666680371350E+00  -2.8287265769992684E+00  -2.8285813207313768E+00
  -2.8284314130673351E+00  -2.8282773678410198E+00  -2.8281196988863049E+00  -2.8279589200370658E+00  -2.8277955451271781E+00
  -2.8276300879905163E+00  -2.8274630624609567E+00  -2.8272949823723730E+00  -2.8271263615586415E+00  -2.8269577138536377E+00
  -2.8267895530912361E+00  -2.8266223931053109E+00  -2.8264567477297393E+00  -2.8262931307983958E+00  -2.8261320561451546E+00
  -2.8259740376038920E+00  -2.8258195890084834E+00  -2.8256692241928030E+00  -2.8255234569907262E+00  -2.8253828012361284E+00
  -2.8252477707628851E+00  -2.8251188794048714E+00  -2.8249966409959617E+00  -2.8248815693700320E+00  -2.8247741783609572E+00
  -2.8246749818026129E+00  -2.8245844935288740E+00  -2.8245032273736155E+00  -2.8244316971707124E+00  -2.8243673990204070E+00
  -2.8242930492094076E+00  -2.8242047266292323E+00  -2.8241024873340601E+00  -2.8239863870019550E+00  -2.8238564809384195E+00
  -2.8237128240799008E+00  -2.8235554709972592E+00  -2.8233844758991924E+00  -2.8231998926356172E+00  -2.8230017747010101E+00
  -2.8227901752377154E+00  -2.8225651470392008E+00  -2.8223267425532859E+00  -2.8220750138853217E+00  -2.8218100128013450E+00
  -2.8215317907311834E+00  -2.8212403987715291E+00  -2.8209358876889774E+00  -2.8206183079230267E+00  -2.8202877095890448E+00
  -2.8199441424812011E+00  -2.8195876560753614E+00  -2.8192182995319550E+00  -2.8188361216988032E+00  -2.8184411711139146E+00
  -2.8180334960082551E+00  -2.8176131443084760E+00  -2.8171801636396210E+00  -2.8167346013277945E+00  -2.8162765044028015E+00
  -2.8158059196007614E+00  -2.8153228933666843E+00  -2.8148274718570274E+00  -2.8143197009422134E+00  -2.8137996262091289E+00
  -2.8132672929635882E+00  -2.8127227462327711E+00  -2.8121660307676368E+00  -2.8115971910453061E+00  -2.8110162712714217E+00
  -2.8104233153824758E+00  -2.8098183670481216E+00  -2.8092014696734489E+00  -2.8085726664012407E+00  -2.8079320001142065E+00
  -2.8072795134371824E+00  -2.8066152487393197E+00  -2.8059392481362377E+00  -2.8052515534921612E+00  -2.8045522064220321E+00
  -2.8038412482935930E+00  -2.8031187202294627E+00  -2.8023846631091693E+00  -2.8016391175711806E+00  -2.8008821240148989E+00
  -2.8001137226026400E+00  -2.7993339532615953E+00  -2.7985428556857612E+00  -2.7977404693378629E+00  -2.7969268334512445E+00
  -2.7961019870317467E+00  -2.7952659688595634E+00  -2.7944188174910787E+00  -2.7935605712606812E+00  -2.7926912682825660E+00
  -2.7918109464525105E+00  -2.7909196434496382E+00  -2.7900173967381590E+00  -2.7891042435690951E+00  -2.7881802209819870E+00
  -2.7872453658065832E+00  -2.7862997146645117E+00  -2.7853433039709312E+00  -2.7843761699361753E+00  -2.7833983485673670E+00
  -2.7824098756700257E+00  -2.7814107868496536E+00  -2.7804011175133119E+00  -2.7793809028711682E+00  -2.7783501779380462E+00
  -2.7773089775349429E+00  -2.7762573362905409E+00  -2.7751952886427014E+00  -2.7741228688399464E+00  -2.7730401109429184E+00
  -2.7719470488258326E+00  -2.7708437161779127E+00  -2.7697301465048083E+00  -2.7686063731300092E+00  -2.7674724291962294E+00
  -2.7663283476667937E+00  -2.7651741613269984E+00  -2.7640099027854688E+00  -2.7628356044754918E+00  -2.7616512986563473E+00
  -2.7604570174146201E+00  -2.7592527926654968E+00  -2.7580386561540582E+00  -2.7568146394565529E+00  -2.7555807739816576E+00
  -2.7543370909717297E+00  -2.7530836215040488E+00  -2.7518203964920391E+00  -2.7505474466864848E+00  -2.7492648026767359E+00
  -2.7479724948918998E+00  -2.7466705536020193E+00  -2.7453590089192437E+00  -2.7440378907989880E+00  -2.7427072290410783E+00
  -2.7413670532908889E+00  -2.7400173930404690E+00  -2.7386582776296566E+00  -2.7372897362471820E+00  -2.7359117979317680E+00
  -2.7345244915732065E+00  -2.7331278459134367E+00  -2.7317218895476092E+00  -2.7303066509251388E+00  -2.7288821583507503E+00
  -2.7274484399855119E+00  -2.7260055238478622E+00  -2.7245534378146226E+00  -2.7230922096220085E+00  -2.7216218668666237E+00
  -2.7201424370064475E+00  -2.7186539473618176E+00  -2.7171564251163955E+00  -2.7156498973181322E+00  -2.7141343908802185E+00
  -2.7126099325820294E+00  -2.7110765490700599E+00  -2.7095342668588529E+00  -2.7079831123319140E+00  -2.7064231117426285E+00
  -2.7048542912151579E+00  -2.7032766767453378E+00  -2.7016902942015619E+00  -2.7000951693256621E+00  -2.6984913277337781E+00
  -2.6968787949172199E+00  -2.6952575962433230E+00  -2.6936277569563001E+00  -2.6919893021780736E+00  -2.6903422569091155E+00
  -2.6886866460292684E+00  -2.6870224942985672E+00  -2.6853498263580460E+00  -2.6836686667305454E+00  -2.6819790398215111E+00
  -2.6802809699197785E+00  -2.6785744811983601E+00  -2.6768595977152208E+00  -2.6751363434140476E+00  -2.6734047421250118E+00
  -2.6716648175655284E+00  -2.6699165933410023E+00  -2.6681600929455755E+00  -2.6663953397628615E+00  -2.6646223570666772E+00
  -2.6628411680217674E+00  -2.6610517956845254E+00  -2.6592542630037022E+00  -2.6574485928211145E+00  -2.6556348078723451E+00
  -2.6538129307874385E+00  -2.6519829840915854E+00  -2.6501449902058107E+00  -2.6482989714476486E+00  -2.6464449500318126E+00
  -2.6445829480708629E+00  -2.6427129875758659E+00  -2.6408350904570499E+00  -2.6389492785244548E+00  -2.6370555734885732E+00
  -2.6351539969609905E+00  -2.6332445704550222E+00  -2.6313273153863337E+00  -2.6294022530735699E+00  -2.6274694047389731E+00
  -2.6255287915089900E+00  -2.6235804344148841E+00  -2.6216243543933375E+00  -2.6196605722870490E+00  -2.6176891088453260E+00
  -2.6157099847246719E+00  -2.6137232204893728E+00  -2.6117288366120710E+00  -2.6097268534743447E+00  -2.6077172913672726E+00
  -2.6057001704920015E+00  -2.6036755109603034E+00  -2.6016433327951352E+00  -2.5996036559311873E+00  -2.5975565002154295E+00
  -2.5955018854076561E+00  -2.5934398311810232E+00  -2.5913703571225803E+00  -2.5892934827338028E+00  -2.5872092274311149E+00
  -2.5851176105464146E+00  -2.5830186513275852E+00  -2.5809123689390145E+00  -2.5787987824620981E+00  -2.5766779108957478E+00
  -2.5745497731568925E+00  -2.5724143880809738E+00  -2.5702717744224399E+00  -2.5681219508552355E+00  -2.5659649359732879E+00
  -2.5638007482909853E+00  -2.5616294062436600E+00  -2.5594509281880575E+00  -2.5572653324028121E+00  -2.5550726370889096E+00
  -2.5528728603701549E+00  -2.5506660202936273E+00  -2.5484521348301405E+00  -2.5462312218746943E+00  -2.5440032992469224E+00
  -2.5417683846915411E+00  -2.5395264958787900E+00  -2.5372776504048726E+00  -2.5350218657923884E+00  -2.5327591594907708E+00
  -2.5304895488767127E+00  -2.5282130512545935E+00  -2.5259296838569010E+00  -2.5236394638446535E+00  -2.5213424083078144E+00
  -2.5190385342657042E+00  -2.5167278586674136E+00  -2.5144103983922075E+00  -2.5120861702499329E+00  -2.5097551909814171E+00
  -2.5074174772588655E+00  -2.5050730456862595E+00  -2.5027219127997462E+00  -2.5003640950680284E+00  -2.4979996088927496E+00
  -2.4956284706088834E+00  -2.4932506964851053E+00  -2.4908663027241773E+00  -2.4884753054633220E+00  -2.4860777207745901E+00
  -2.4836735646652386E+00  -2.4812628530780900E+00  -2.4788456018919005E+00  -2.4764218269217224E+00  -2.4739915439192575E+00
  -2.4715547685732218E+00  -2.4691115165096931E+00  -2.4666618032924634E+00  -2.4642056444233895E+00  -2.4617430553427382E+00
  -2.4592740514295293E+00  -2.4567986480018758E+00  -2.4543168603173280E+00  -2.4518287035732027E+00  -2.4493341929069214E+00
  -2.4468333433963427E+00  -2.4443261700600862E+00  -2.4418126878578668E+00  -2.4392929116908131E+00  -2.4367668564017908E+00
  -2.4342345367757257E+00  -2.4316959675399188E+00  -2.4291511633643608E+00  -2.4266001388620491E+00  -2.4240429085892941E+00
  -2.4214794870460312E+00  -2.4189098886761271E+00  -2.4163341278676831E+00  -2.4137522189533360E+00  -2.4111641762105638E+00
  -2.4085700138619792E+00  -2.4059697460756246E+00  -2.4033633869652715E+00  -2.4007509505907088E+00  -2.3981324509580300E+00
  -2.3955079020199297E+00  -2.3928773176759783E+00  -2.3902407117729170E+00  -2.3875980981049310E+00  -2.3849494904139359E+00
  -2.3822949023898512E+00  -2.3796343476708794E+00  -2.3769678398437795E+00  -2.3742953924441395E+00  -2.3716170189566461E+00
  -2.3689327328153564E+00  -2.3662425474039588E+00  -2.3635464760560470E+00  -2.3608445320553741E+00  -2.3581367286361217E+00
  -2.3554230789831534E+00  -2.3527035962322786E+00  -2.3499782934705036E+00  -2.3472471837362892E+00  -2.3445102800198043E+00
  -2.3417675952631742E+00  -2.3390191423607321E+00  -2.3362649341592649E+00  -2.3335049834582624E+00  -2.3307393030101591E+00
  -2.3279679055205773E+00  -2.3251908036485713E+00  -2.3224080100068631E+00  -2.3196195371620822E+00  -2.3168253976350024E+00
  -2.3140256039007761E+00  -2.3112201683891689E+00  -2.3084091034847884E+00  -2.3055924215273178E+00  -2.3027701348117446E+00
  -2.2999422555885851E+00  -2.2971087960641103E+00  -2.2942697684005746E+00  -2.2914251847164349E+00  -2.2885750570865722E+00
  -2.2857193975425130E+00  -2.2828582180726444E+00  -2.2799915306224388E+00  -2.2771193470946600E+00  -2.2742416793495828E+00
  -2.2713585392052087E+00  -2.2684699384374687E+00  -2.2655758887804431E+00  -2.2626764019265635E+00  -2.2597714895268233E+00
  -2.2568611631909841E+00  -2.2539454344877772E+00  -2.2510243149451123E+00  -2.2480978160502763E+00  -2.2451659492501332E+00
  -2.2422287259513278E+00  -2.2392861575204801E+00  -2.2363382552843838E+00  -2.2333850305302034E+00  -2.2304264945056680E+00
  -2.2274626584192636E+00  -2.2244935334404259E+00  -2.2215191306997317E+00  -2.2185394612890890E+00  -2.2155545362619242E+00
  -2.2125643666333699E+00  -2.2095689633804527E+00  -2.2065683374422762E+00  -2.2035624997202037E+00  -2.2005514610780472E+00
  -2.1975352323422412E+00  -2.1945138243020259E+00  -2.1914872477096305E+00  -2.1884555132804437E+00  -2.1854186316931994E+00
  -2.1823766135901446E+00  -2.1793294695772225E+00  -2.1762772102242374E+00  -2.1732198460650345E+00  -2.1701573875976692E+00
  -2.1670898452845773E+00  -2.1640172295527447E+00  -2.1609395507938758E+00  -2.1578568193645626E+00  -2.1547690455864501E+00
  -2.1516762397464002E+00  -2.1485784120966587E+00  -2.1454755728550179E+00  -2.1423677322049781E+00  -2.1392549002959118E+00
  -2.1361370872432190E+00  -2.1330143031284923E+00  -2.1298865579996740E+00  -2.1267538618712112E+00  -2.1236162247242132E+00
  -2.1204736565066109E+00  -2.1173261671333075E+00  -2.1141737664863327E+00  -2.1110164644149982E+00  -2.1078542707360479E+00
  -2.1046871952338071E+00  -2.1015152476603376E+00  -2.0983384377355820E+00  -2.0951567751475157E+00  -2.0919702695522928E+00
  -2.0887789305743927E+00  -2.0855827678067644E+00  -2.0823817908109761E+00  -2.0791760091173530E+00  -2.0759654322251273E+00
  -2.0727500696025749E+00  -2.0695299306871582E+00  -2.0663050248856694E+00  -2.0630753615743678E+00  -2.0598409500991188E+00
  -2.0566017997755348E+00  -2.0533579198891085E+00  -2.0501093196953528E+00  -2.0468560084199350E+00  -2.0435979952588128E+00
  -2.0403352893783664E+00  -2.0370678999155376E+00  -2.0337958359779535E+00  -2.0305191066440655E+00  -2.0272377209632775E+00
  -2.0239516879560799E+00  -2.0206610166141705E+00  -2.0173657159005942E+00  -2.0140657947498664E+00  -2.0107612620680944E+00
  -2.0074521267331153E+00  -2.0041383975946143E+00  -2.0008200834742520E+00  -1.9974971931657886E+00  -1.9941697354352077E+00
  -1.9908377190208408E+00  -1.9875011526334867E+00  -1.9841600449565362E+00  -1.9808144046460916E+00  -1.9774642403310865E+00
  -1.9741095606134047E+00  -1.9707503740680052E+00  -1.9673866892430301E+00  -1.9640185146599298E+00  -1.9606458588135800E+00
  -1.9572687301723930E+00  -1.9538871371784385E+00  -1.9505010882475533E+00  -1.9471105917694607E+00  -1.9437156561078806E+00
  -1.9403162896006458E+00  -1.9369125005598116E+00  -1.9335042972717666E+00  -1.9300916879973469E+00  -1.9266746809719462E+00
  -1.9232532844056247E+00  -1.9198275064832167E+00  -1.9163973553644444E+00  -1.9129628391840194E+00  -1.9095239660517553E+00
  -1.9060807440526717E+00  -1.9026331812471027E+00  -1.8991812856708024E+00  -1.8957250653350455E+00  -1.8922645282267387E+00
  -1.8887996823085200E+00  -1.8853305355188643E+00  -1.8818570957721839E+00  -1.8783793709589349E+00  -1.8748973689457145E+00
  -1.8714110975753633E+00  -1.8679205646670680E+00  -1.8644257780164584E+00  -1.8609267453957117E+00  -1.8574234745536444E+00
  -1.8539159732158172E+00  -1.8504042490846286E+00  -1.8468883098394158E+00  -1.8433681631365462E+00  -1.8398438166095210E+00
  -1.8363152778690666E+00  -1.8327825545032279E+00  -1.8292456540774673E+00  -1.8257045841347579E+00  -1.8221593521956745E+00
  -1.8186099657584909E+00  -1.8150564322992699E+00  -1.8114987592719545E+00  -1.8079369541084649E+00  -1.8043710242187834E+00
  -1.8008009769910494E+00  -1.7972268197916483E+00  -1.7936485599653005E+00  -1.7900662048351514E+00  -1.7864797617028620E+00
  -1.7828892378486942E+00  -1.7792946405316008E+00  -1.7756959769893128E+00  -1.7720932544384234E+00  -1.7684864800744804E+00
  -1.7648756610720684E+00  -1.7612608045848919E+00  -1.7576419177458662E+00  -1.7540190076671998E+00  -1.7503920814404756E+00
  -1.7467611461367405E+00  -1.7431262088065829E+00  -1.7394872764802209E+00  -1.7358443561675809E+00  -1.7321974548583821E+00
  -1.7285465795222150E+00  -1.7248917371086276E+00  -1.7212329345472019E+00  -1.7175701787476376E+00  -1.7139034765998284E+00
  -1.7102328349739435E+00  -1.7065582607205074E+00  -1.7028797606704795E+00  -1.6991973416353281E+00  -1.6955110104071138E+00
  -1.6918207737585627E+00  -1.6881266384431461E+00  -1.6844286111951559E+00  -1.6807266987297811E+00  -1.6770209077431846E+00
  -1.6733112449125791E+00  -1.6695977168963001E+00  -1.6658803303338829E+00  -1.6621590918461342E+00  -1.6584340080352107E+00
  -1.6547050854846876E+00  -1.6509723307596378E+00  -1.6472357504066975E+00  -1.6434953509541450E+00  -1.6397511389119683E+00
  -1.6360031207719430E+00  -1.6322513030076955E+00  -1.6284956920747800E+00  -1.6247362944107506E+00  -1.6209731164352235E+00
  -1.6172061645499551E+00  -1.6134354451389095E+00  -1.6096609645683240E+00  -1.6058827291867845E+00  -1.6021007453252887E+00
  -1.5983150192973161E+00  -1.5945255573988995E+00  -1.5907323659086834E+00  -1.5869354510880029E+00  -1.5831348191809429E+00
  -1.5793304764144047E+00  -1.5755224289981773E+00  -1.5717106831249983E+00  -1.5678952449706214E+00  -1.5640761206938834E+00
  -1.5602533164367667E+00  -1.5564268383244628E+00  -1.5525966924654409E+00  -1.5487628849515087E+00  -1.5449254218578763E+00
  -1.5410843092432214E+00  -1.5372395531497505E+00  -1.5333911596032601E+00  -1.5295391346132055E+00  -1.5256834841727551E+00
  -1.5218242142588581E+00  -1.5179613308323006E+00  -1.5140948398377752E+00  -1.5102247472039307E+00  -1.5063510588434430E+00
  -1.5024737806530681E+00  -1.4985929185137081E+00  -1.4947084782904663E+00  -1.4908204658327078E+00  -1.4869288869741215E+00
  -1.4830337475327742E+00  -1.4791350533111720E+00  -1.4752328100963197E+00  -1.4713270236597771E+00  -1.4674176997577162E+00
  -1.4635048441309804E+00  -1.4595884625051407E+00  -1.4556685605905506E+00  -1.4517451440824098E+00  -1.4478182186608111E+00
  -1.4438877899908029E+00  -1.4399538637224429E+00  -1.4360164454908548E+00  -1.4320755409162822E+00  -1.4281311556041441E+00
  -1.4241832951450901E+00  -1.4202319651150537E+00  -1.4162771710753097E+00  -1.4123189185725236E+00  -1.4083572131388098E+00
  -1.4043920602917810E+00  -1.4004234655346059E+00  -1.3964514343560563E+00  -1.3924759722305682E+00  -1.3884970846182829E+00
  -1.3845147769651138E+00  -1.3805290547027831E+00  -1.3765399232488837E+00  -1.3725473880069288E+00  -1.3685514543664010E+00
  -1.3645521277028028E+00  -1.3605494133777127E+00  -1.3565433167388306E+00  -1.3525338431200271E+00  -1.3485209978413992E+00
  -1.3445047862093158E+00  -1.3404852135164680E+00  -1.3364622850419206E+00  -1.3324360060511597E+00  -1.3284063817961385E+00
  -1.3243734175153330E+00  -1.3203371184337827E+00  -1.3162974897631459E+00  -1.3122545367017440E+00  -1.3082082644346094E+00
  -1.3041586781335315E+00  -1.3001057829571077E+00  -1.2960495840507904E+00  -1.2919900865469309E+00  -1.2879272955648278E+00
  -1.2838612162107716E+00  -1.2797918535780939E+00  -1.2757192127472159E+00  -1.2716432987856843E+00  -1.2675641167482274E+00
  -1.2634816716767947E+00  -1.2593959686006062E+00  -1.2553070125361907E+00  -1.2512148084874377E+00  -1.2471193614456422E+00
  -1.2430206763895399E+00  -1.2389187582853636E+00  -1.2348136120868758E+00  -1.2307052427354233E+00  -1.2265936551599721E+00
  -1.2224788542771552E+00  -1.2183608449913159E+00  -1.2142396321945470E+00  -1.2101152207667412E+00  -1.2059876155756237E+00
  -1.2018568214768048E+00  -1.1977228433138132E+00  -1.1935856859181446E+00  -1.1894453541092995E+00  -1.1853018526948276E+00
  -1.1811551864703698E+00  -1.1770053602196939E+00  -1.1728523787147445E+00  -1.1686962467156741E+00  -1.1645369689708938E+00
  -1.1603745502171063E+00  -1.1562089951793482E+00  -1.1520403085710356E+00  -1.1478684950939957E+00  -1.1436935594385105E+00
  -1.1395155062833573E+00  -1.1353343402958511E+00  -1.1311500661318745E+00  -1.1269626884359272E+00  -1.1227722118411563E+00
  -1.1185786409694045E+00  -1.1143819804312396E+00  -1.1101822348260002E+00  -1.1059794087418282E+00  -1.1017735067557097E+00
  -1.0975645334335125E+00  -1.0933524933300278E+00  -1.0891373909889999E+00  -1.0849192309431706E+00  -1.0806980177143133E+00
  -1.0764737558132722E+00  -1.0722464497399928E+00  -1.0680161039835716E+00  -1.0637827230222789E+00  -1.0595463113236032E+00
  -1.0553068733442876E+00  -1.0510644135303622E+00  -1.0468189363171829E+00  -1.0425704461294656E+00  -1.0383189473813237E+00
  -1.0340644444763030E+00  -1.0298069418074163E+00  -1.0255464437571802E+00  -1.0212829546976461E+00  -1.0170164789904439E+00
  -1.0127470209868070E+00  -1.0084745850276127E+00  -1.0041991754434143E+00  -9.9992079655447752E-01  -9.9563945267081255E-01
  -9.9135514809220981E-01  -9.8706788710827409E-01  -9.8277767399845617E-01  -9.7848451303209061E-01  -9.7418840846841992E-01
  -9.6988936455663988E-01  -9.6558738553592560E-01  -9.6128247563546809E-01  -9.5697463907450231E-01  -9.5266388006234548E-01
  -9.4835020279842530E-01  -9.4403361147231413E-01  -9.3971411026376483E-01  -9.3539170334273625E-01  -9.3106639486943066E-01
  -9.2673818899432481E-01  -9.2240708985819697E-01  -9.1807310159216660E-01  -9.1373622831772072E-01  -9.0939647414674496E-01
  -9.0505384318155857E-01  -9.0070833951494178E-01  -8.9635996723016831E-01  -8.9200873040103734E-01  -8.8765463309190218E-01
  -8.8329767935770354E-01  -8.7893787324399930E-01  -8.7457521878698874E-01  -8.7020972001355545E-01  -8.6584138094128449E-01
  -8.6147020557850118E-01  -8.5709619792429836E-01  -8.5271936196856402E-01  -8.4833970169201345E-01  -8.4395722106621596E-01
  -8.3957192405363101E-01  -8.3518381460762825E-01  -8.3079289667252443E-01  -8.2639917418360542E-01  -8.2200265106716142E-01
  -8.1760333124051299E-01  -8.1320121861204098E-01  -8.0879631708121102E-01  -8.0438863053860810E-01  -7.9997816286596091E-01
  -7.9556491793616879E-01  -7.9114889961333468E-01  -7.8673011175278851E-01  -7.8230855820111922E-01  -7.7788424279619783E-01
  -7.7345716936720776E-01  -7.6902734173467369E-01  -7.6459476371048496E-01  -7.6015943909792660E-01  -7.5572137169170461E-01
  -7.5128056527797626E-01  -7.4683702363436977E-01  -7.4239075053001702E-01  -7.3794174972558257E-01  -7.3349002497328231E-01
  -7.2903558001691660E-01  -7.2457841859189509E-01  -7.2011854442525836E-01  -7.1565596123571440E-01  -7.1119067273365344E-01
  -7.0672268262118210E-01  -7.0225199459214627E-01  -6.9777861233215355E-01  -6.9330253951860621E-01  -6.8882377982071874E-01
  -6.8434233689955304E-01  -6.7985821440803129E-01  -6.7537141599097383E-01  -6.7088194528511702E-01  -6.6638980591913655E-01
  -6.6189500151368053E-01  -6.5739753568138637E-01  -6.5289741202691121E-01  -6.4839463414695309E-01  -6.4388920563027308E-01
  -6.3938113005772945E-01  -6.3487041100229313E-01  -6.3035705202907266E-01  -6.2584105669534551E-01  -6.2132242855057096E-01
  -6.1680117113642408E-01  -6.1227728798681713E-01  -6.0775078262791726E-01  -6.0322165857817944E-01  -5.9868991934836435E-01
  -5.9415556844156303E-01  -5.8961860935321864E-01  -5.8507904557115431E-01  -5.8053688057559327E-01  -5.7599211783918192E-01
  -5.7144476082701579E-01  -5.6689481299665589E-01  -5.6234227779815849E-01  -5.5778715867409401E-01  -5.5322945905957555E-01
  -5.4866918238227091E-01  -5.4410633206243553E-01  -5.3954091151292927E-01  -5.3497292413923692E-01  -5.3040237333950124E-01
  -5.2582926250453121E-01  -5.2125359501783231E-01  -5.1667537425562893E-01  -5.1209460358687986E-01  -5.0751128637330689E-01
  -5.0292542596941614E-01  -4.9833702572251459E-01  -4.9374608897273470E-01  -4.8915261905305901E-01  -4.8455661928933402E-01
  -4.7995809300030046E-01  -4.7535704349760843E-01  -4.7075347408583929E-01  -4.6614738806252809E-01  -4.6153878871818604E-01
  -4.5692767933631723E-01  -4.5231406319344325E-01  -4.4769794355912335E-01  -4.4307932369597142E-01  -4.3845820685968251E-01
  -4.3383459629905230E-01  -4.2920849525598803E-01  -4.2457990696554421E-01  -4.1994883465593247E-01  -4.1531528154854469E-01
  -4.1067925085797269E-01  -4.0604074579202820E-01  -4.0139976955176471E-01  -3.9675632533149452E-01  -3.9211041631881238E-01
  -3.8746204569461123E-01  -3.8281121663310230E-01  -3.7815793230183881E-01  -3.7350219586173061E-01  -3.6884401046706655E-01
  -3.6418337926553385E-01  -3.5952030539823493E-01  -3.5485479199971171E-01  -3.5018684219795609E-01  -3.4551645911443857E-01
  -3.4084364586412380E-01  -3.3616840555548444E-01  -3.3149074129052936E-01  -3.2681065616481547E-01  -3.2212815326746863E-01
  -3.1744323568120114E-01  -3.1275590648233387E-01  -3.0806616874081161E-01  -3.0337402552022158E-01  -2.9867947987781440E-01
  -2.9398253486451864E-01  -2.8928319352496290E-01  -2.8458145889749048E-01  -2.7987733401418141E-01  -2.7517082190086639E-01
  -2.7046192557714677E-01  -2.6575064805641557E-01  -2.6103699234586852E-01  -2.5632096144652627E-01  -2.5160255835325335E-01
  -2.4688178605477484E-01  -2.4215864753368715E-01  -2.3743314576648747E-01  -2.3270528372358196E-01  -2.2797506436930998E-01
  -2.2324249066195309E-01  -2.1850756555376225E-01  -2.1377029199096426E-01  -2.0903067291378835E-01  -2.0428871125647990E-01
  -1.9954440994731687E-01  -1.9479777190862396E-01  -1.9004880005679420E-01  -1.8529749730230508E-01  -1.8054386654973545E-01
  -1.7578791069777666E-01  -1.7102963263925824E-01  -1.6626903526115772E-01  -1.6150612144461962E-01  -1.5674089406497235E-01
  -1.5197335599174272E-01  -1.4720351008867508E-01  -1.4243135921374395E-01  -1.3765690621917848E-01  -1.3288015395146177E-01
  -1.2810110525136670E-01  -1.2331976295396117E-01  -1.1853612988862423E-01  -1.1375020887906435E-01  -1.0896200274333720E-01
  -1.0417151429385348E-01  -9.9378746337407065E-02  -9.4583701675177254E-02  -8.9786383102757231E-02  -8.4986793410159855E-02
  -8.0184935381839087E-02  -7.5380811796698491E-02  -7.0574425428117066E-02  -6.5765779043957417E-02  -6.0954875406580920E-02
  -5.6141717272865356E-02  -5.1326307394223114E-02  -4.6508648516607208E-02  -4.1688743380534042E-02  -3.6866594721099134E-02
  -3.2042205267986602E-02  -2.7215577745486972E-02  -2.2386714872511256E-02  -1.7555619362609010E-02  -1.2722293923979467E-02
  -7.8867412594865200E-03  -3.0489640666744133E-03   1.7910349622134497E-03   6.6332531402338319E-03   1.1477687785708283E-02
   1.6324336222228938E-02   2.1173195778628712E-02   2.6024263788975668E-02   3.0877537592555619E-02   3.5733014533861893E-02
   4.0590691962574962E-02   4.5450567233547540E-02   5.0312637706800133E-02   5.5176900747498009E-02   6.0043353725936950E-02
   6.4911994017539554E-02   6.9782819002826027E-02   7.4655826067414360E-02   7.9531012601998435E-02   8.4408376002331545E-02
   8.9287913669227240E-02   9.4169623008526160E-02   9.9053501431099047E-02   1.0393954635281738E-01   1.0882775519456038E-01
   1.1371812538218098E-01   1.1861065434650110E-01   1.2350533952330389E-01   1.2840217835331066E-01   1.3330116828216990E-01
   1.3820230676045209E-01   1.4310559124362174E-01   1.4801101919203968E-01   1.5291858807094066E-01   1.5782829535042037E-01
   1.6274013850542593E-01   1.6765411501574301E-01   1.7257022236597808E-01   1.7748845804555149E-01   1.8240881954868160E-01
   1.8733130437437129E-01   1.9225591002639453E-01   1.9718263401328989E-01   2.0211147384833739E-01   2.0704242704955772E-01
   2.1197549113968900E-01   2.1691066364618170E-01   2.2184794210118255E-01   2.2678732404151952E-01   2.3172880700869825E-01
   2.3667238854888026E-01   2.4161806621287696E-01   2.4656583755613093E-01   2.5151570013871422E-01   2.5646765152530149E-01
   2.6142168928517356E-01   2.6637781099218955E-01   2.7133601422479031E-01   2.7629629656597676E-01   2.8125865560329422E-01
   2.8622308892883369E-01   2.9118959413921031E-01   2.9615816883555163E-01   3.0112881062349112E-01   3.0610151711314848E-01
   3.1107628591912606E-01   3.1605311466049196E-01   3.2103200096076978E-01   3.2601294244792883E-01   3.3099593675436750E-01
   3.3598098151691053E-01   3.4096807437678261E-01   3.4595721297961279E-01   3.5094839497541919E-01   3.5594161801858731E-01
   3.6093687976787048E-01   3.6593417788637295E-01   3.7093351004154124E-01   3.7593487390514951E-01   3.8093826715328966E-01
   3.8594368746636543E-01   3.9095113252907115E-01   3.9596060003038752E-01   4.0097208766356773E-01   4.0598559312613586E-01
   4.1100111411985851E-01   4.1601864835074559E-01   4.2103819352903704E-01   4.2605974736919416E-01   4.3108330758988173E-01
   4.3610887191396913E-01   4.4113643806850100E-01   4.4616600378471027E-01   4.5119756679798745E-01   4.5623112484787703E-01
   4.6126667567807100E-01   4.6630421703639169E-01   4.7134374667478474E-01   4.7638526234931144E-01   4.8142876182012623E-01
   4.8647424285148350E-01   4.9152170321171040E-01   4.9657114067321162E-01   5.0162255301244807E-01   5.0667593800992761E-01
   5.1173129345019885E-01   5.1678861712184532E-01   5.2184790681745996E-01   5.2690916033365220E-01   5.3197237547102250E-01
   5.3703755003416531E-01   5.4210468183164973E-01   5.4717376867601453E-01   5.5224480838375878E-01   5.5731779877532139E-01
   5.6239273767508891E-01   5.6746962291137071E-01   5.7254845231639662E-01   5.7762922372630066E-01   5.8271193498112084E-01
   5.8779658392478051E-01   5.9288316840508226E-01   5.9797168627369979E-01   6.0306213538616105E-01   6.0815451360185024E-01
   6.1324881878398962E-01   6.1834504879962904E-01   6.2344320151964094E-01   6.2854327481871153E-01   6.3364526657532627E-01
   6.3874917467176007E-01   6.4385499699407778E-01   6.4896273143211203E-01   6.5407237587946254E-01   6.5918392823348027E-01
   6.6429738639526525E-01   6.6941274826964969E-01   6.7453001176519833E-01   6.7964917479418707E-01   6.8477023527260361E-01
   6.8989319112013192E-01   6.9501804026014624E-01   7.0014478061970775E-01   7.0527341012953981E-01   7.1040392672403352E-01
   7.1553632834123537E-01   7.2067061292283074E-01   7.2580677841413999E-01   7.3094482276412043E-01   7.3608474392533407E-01
   7.4122653985396048E-01   7.4637020850977365E-01   7.5151574785614106E-01   7.5666315586001154E-01   7.6181243049190539E-01
   7.6696356972591351E-01   7.7211657153967495E-01   7.7727143391438180E-01   7.8242815483475869E-01   7.8758673228906573E-01
   7.9274716426908287E-01   7.9790944877009773E-01   8.0307358379090710E-01   8.0823956733380342E-01   8.1340739740455803E-01
   8.1857707201243324E-01   8.2374858917015314E-01   8.2892194689390153E-01   8.3409714320332162E-01   8.3927417612149713E-01
   8.4445304367494411E-01   8.4963374389361923E-01   8.5481627481088751E-01   8.6000063446352759E-01   8.6518682089172261E-01
   8.7037483213904954E-01   8.7556466625247131E-01   8.8075632128233172E-01   8.8594979528234596E-01   8.9114508630958800E-01
   8.9634219242448487E-01   9.0154111169081286E-01   9.0674184217568210E-01   9.1194438194954031E-01   9.1714872908614764E-01
   9.2235488166258417E-01   9.2756283775923498E-01   9.3277259545977875E-01   9.3798415285119308E-01   9.4319750802372737E-01
   9.4841265907091543E-01   9.5362960408954911E-01   9.5884834117968532E-01   9.6406886844462358E-01   9.6929118399091851E-01
   9.7451528592835313E-01   9.7974117236993108E-01   9.8496884143189012E-01   9.9019829123367253E-01   9.9542951989792450E-01
   1.0006625255504915E+00   1.0058973063204102E+00   1.0111338603398961E+00   1.0163721857443393E+00   1.0216122806722985E+00
   1.0268541432654856E+00   1.0320977716687767E+00   1.0373431640301802E+00   1.0425903185008452E+00   1.0478392332350552E+00
   1.0530899063902055E+00   1.0583423361268161E+00   1.0635965206085121E+00   1.0688524580020144E+00   1.0741101464771403E+00
   1.0793695842067885E+00   1.0846307693669397E+00   1.0898937001366518E+00   1.0951583746980331E+00   1.1004247912362521E+00
   1.1056929479395348E+00   1.1109628429991438E+00   1.1162344746093722E+00   1.1215078409675492E+00   1.1267829402740241E+00
   1.1320597707321516E+00   1.1373383305483047E+00   1.1426186179318478E+00   1.1479006310951396E+00   1.1531843682535301E+00
   1.1584698276253416E+00   1.1637570074318693E+00   1.1690459058973750E+00   1.1743365212490799E+00   1.1796288517171538E+00
   1.1849228955347146E+00   1.1902186509378128E+00   1.1955161161654313E+00   1.2008152894594768E+00   1.2061161690647737E+00
   1.2114187532290608E+00   1.2167230402029745E+00   1.2220290282400490E+00   1.2273367155967092E+00   1.2326461005322675E+00
   1.2379571813089054E+00   1.2432699561916838E+00   1.2485844234485228E+00   1.2539005813501971E+00   1.2592184281703365E+00
   1.2645379621854100E+00   1.2698591816747284E+00   1.2751820849204343E+00   1.2805066702074868E+00   1.2858329358236709E+00
   1.2911608800595797E+00   1.2964905012086114E+00   1.3018217975669661E+00   1.3071547674336281E+00   1.3124894091103780E+00
   1.3178257209017687E+00   1.3231637011151274E+00   1.3285033480605482E+00   1.3338446600508846E+00   1.3391876354017505E+00
   1.3445322724314983E+00   1.3498785694612310E+00   1.3552265248147801E+00   1.3605761368187061E+00   1.3659274038023022E+00
   1.3712803240975640E+00   1.3766348960392094E+00   1.3819911179646585E+00   1.3873489882140231E+00   1.3927085051301145E+00
   1.3980696670584261E+00   1.4034324723471354E+00   1.4087969193470926E+00   1.4141630064118080E+00   1.4195307318974686E+00
   1.4249000941629033E+00   1.4302710915695998E+00   1.4356437224816871E+00   1.4410179852659357E+00   1.4463938782917374E+00
   1.4517713999311244E+00   1.4571505485587355E+00   1.4625313225518395E+00   1.4679137202902992E+00   1.4732977401565879E+00
   1.4786833805357704E+00   1.4840706398155121E+00   1.4894595163860536E+00   1.4948500086402210E+00   1.5002421149734109E+00
   1.5056358337835904E+00   1.5110311634712867E+00   1.5164281024395838E+00   1.5218266490941190E+00   1.5272268018430728E+00
   1.5326285590971620E+00   1.5380319192696430E+00   1.5434368807762979E+00   1.5488434420354307E+00   1.5542516014678620E+00
   1.5596613574969280E+00   1.5650727085484666E+00   1.5704856530508138E+00   1.5759001894348057E+00   1.5813163161337627E+00
   1.5867340315834966E+00   1.5921533342222896E+00   1.5975742224908973E+00   1.6029966948325465E+00   1.6084207496929239E+00
   1.6138463855201692E+00   1.6192736007648822E+00   1.6247023938800984E+00   1.6301327633212992E+00   1.6355647075463993E+00
   1.6409982250157400E+00   1.6464333141920917E+00   1.6518699735406444E+00   1.6573082015289926E+00   1.6627479966271475E+00
   1.6681893573075235E+00   1.6736322820449225E+00   1.6790767693165545E+00   1.6845228176020060E+00   1.6899704253832455E+00
   1.6954195911446215E+00   1.7008703133728531E+00   1.7063225905570247E+00   1.7117764211885897E+00   1.7172318037613445E+00
   1.7226887367714434E+00   1.7281472187173881E+00   1.7336072481000182E+00   1.7390688234225089E+00   1.7445319431903681E+00
   1.7499966059114287E+00   1.7554628100958427E+00   1.7609305542560785E+00   1.7663998369069109E+00   1.7718706565654285E+00
   1.7773430117510174E+00   1.7828169009853527E+00   1.7882923227924057E+00   1.7937692756984327E+00   1.7992477582319693E+00
   1.8047277689238312E+00   1.8102093063070996E+00   1.8156923689171218E+00   1.8211769552915098E+00   1.8266630639701267E+00
   1.8321506934950906E+00   1.8376398424107683E+00   1.8431305092637631E+00   1.8486226926029168E+00   1.8541163909793057E+00
   1.8596116029462271E+00   1.8651083270592055E+00   1.8706065618759846E+00   1.8761063059565206E+00   1.8816075578629723E+00
   1.8871103161597085E+00   1.8926145794132931E+00   1.8981203461924818E+00   1.9036276150682323E+00   1.9091363846136684E+00
   1.9146466534041064E+00   1.9201584200170370E+00   1.9256716830321128E+00   1.9311864410311688E+00   1.9367026925981849E+00
   1.9422204363193121E+00   1.9477396707828416E+00   1.9532603945792184E+00   1.9587826063010330E+00   1.9643063045430083E+00
   1.9698314879020087E+00   1.9753581549770223E+00   1.9808863043691634E+00   1.9864159346816708E+00   1.9919470445198941E+00
   1.9974796324912998E+00   2.0030136972054593E+00   2.0085492372740461E+00   2.0140862513108337E+00   2.0196247379316872E+00
   2.0251646957545595E+00   2.0307061233995025E+00   2.0362490194886291E+00   2.0417933826461407E+00   2.0473392114983073E+00
   2.0528865046734688E+00   2.0584352608020224E+00   2.0639854785164373E+00   2.0695371564512208E+00   2.0750902932429427E+00
   2.0806448875302133E+00   2.0862009379536866E+00   2.0917584431560541E+00   2.0973174017820440E+00   2.1028778124784062E+00
   2.1084396738939200E+00   2.1140029846793840E+00   2.1195677434876132E+00   2.1251339489734384E+00   2.1307015997936936E+00
   2.1362706946072181E+00   2.1418412320748557E+00   2.1474132108594346E+00   2.1529866296257820E+00   2.1585614870407164E+00
   2.1641377817730310E+00   2.1697155124935028E+00   2.1752946778748803E+00   2.1808752765918853E+00   2.1864573073212057E+00
   2.1920407687414953E+00   2.1976256595333585E+00   2.2032119783793638E+00   2.2087997239640234E+00   2.2143888949737973E+00
   2.2199794900970891E+00   2.2255715080242471E+00   2.2311649474475375E+00   2.2367598070611741E+00   2.2423560855612883E+00
   2.2479537816459323E+00   2.2535528940150873E+00   2.2591534213706392E+00   2.2647553624163894E+00   2.2703587158580456E+00
   2.2759634804032145E+00   2.2815696547614062E+00   2.2871772376440274E+00   2.2927862277643687E+00   2.2983966238376183E+00
   2.3040084245808372E+00   2.3096216287129736E+00   2.3152362349548508E+00   2.3208522420291593E+00   2.3264696486604648E+00
   2.3320884535751913E+00   2.3377086555016264E+00   2.3433302531699116E+00   2.3489532453120465E+00   2.3545776306618786E+00
   2.3602034079550980E+00   2.3658305759292362E+00   2.3714591333236648E+00   2.3770890788795884E+00   2.3827204113400513E+00
   2.3883531294499059E+00   2.3939872319558453E+00   2.3996227176063747E+00   2.4052595851518124E+00   2.4108978333442921E+00
   2.4165374609377612E+00   2.4221784666879631E+00   2.4278208493524449E+00   2.4334646076905542E+00   2.4391097404634285E+00
   2.4447562464339994E+00   2.4504041243669801E+00   2.4560533730288769E+00   2.4617039911879632E+00   2.4673559776142975E+00
   2.4730093310797039E+00   2.4786640503577795E+00   2.4843201342238910E+00   2.4899775814551526E+00   2.4956363908304531E+00
   2.5012965611304261E+00   2.5069580911374558E+00   2.5126209796356789E+00   2.5182852254109815E+00   2.5239508272509736E+00
   2.5296177839450156E+00   2.5352860942841979E+00   2.5409557570613428E+00   2.5466267710709980E+00   2.5522991351094313E+00
   2.5579728479746398E+00   2.5636479084663240E+00   2.5693243153859071E+00   2.5750020675365173E+00   2.5806811637229985E+00
   2.5863616027518854E+00   2.5920433834314149E+00   2.5977265045715270E+00   2.6034109649838446E+00   2.6090967634816877E+00
   2.6147838988800634E+00   2.6204723699956545E+00   2.6261621756468232E+00   2.6318533146536174E+00   2.6375457858377476E+00
   2.6432395880225985E+00   2.6489347200332216E+00   2.6546311806963354E+00   2.6603289688403020E+00   2.6660280832951559E+00
   2.6717285228925816E+00   2.6774302864659076E+00   2.6831333728501172E+00   2.6888377808818271E+00   2.6945435093993031E+00
   2.7002505572424411E+00   2.7059589232527785E+00   2.7116686062734754E+00   2.7173796051493238E+00   2.7230919187267384E+00
   2.7288055458537546E+00   2.7345204853800245E+00   2.7402367361568167E+00   2.7459542970370161E+00   2.7516731668751020E+00
   2.7573933445271739E+00   2.7631148288509233E+00   2.7688376187056449E+00   2.7745617129522260E+00   2.7802871104531541E+00
   2.7860138100724976E+00   2.7917418106759166E+00   2.7974711111306512E+00   2.8032017103055211E+00   2.8089336070709305E+00
   2.8146668002988529E+00   2.8204012888628291E+00   2.8261370716379708E+00   2.8318741475009621E+00   2.8376125153300342E+00
   2.8433521740049907E+00   2.8490931224071874E+00   2.8548353594195297E+00   2.8605788839264750E+00   2.8663236948140272E+00
   2.8720697909697348E+00   2.8778171712826923E+00   2.8835658346435191E+00   2.8893157799443800E+00   2.8950670060789720E+00
   2.9008195119425166E+00   2.9065732964317603E+00   2.9123283584449835E+00   2.9180846968819756E+00   2.9238423106440474E+00
   2.9296011986340242E+00   2.9353613597562416E+00   2.9411227929165458E+00   2.9468854970222931E+00   2.9526494709823297E+00
   2.9584147137070147E+00   2.9641812241081968E+00   2.9699490010992240E+00   2.9757180435949286E+00   2.9814883505116443E+00
   2.9872599207671757E+00   2.9930327532808212E+00   2.9988068469733511E+00   3.0045822007670182E+00   3.0103588135855528E+00
   3.0161366843541515E+00   3.0219158119994742E+00   3.0276961954496580E+00   3.0334778336342989E+00   3.0392607254844535E+00
   3.0450448699326342E+00   3.0508302659128081E+00   3.0566169123604037E+00   3.0624048082122810E+00   3.0681939524067627E+00
   3.0739843438836076E+00   3.0797759815840231E+00   3.0855688644506452E+00   3.0913629914275473E+00   3.0971583614602451E+00
   3.1029549734956738E+00   3.1087528264821982E+00   3.1145519193696165E+00   3.1203522511091411E+00   3.1261538206534052E+00
   3.1319566269564589E+00   3.1377606689737672E+00   3.1435659456622034E+00   3.1493724559800618E+00   3.1551801988870269E+00
   3.1609891733441926E+00   3.1667993783140576E+00   3.1726108127605155E+00   3.1784234756488599E+00   3.1842373659457688E+00
   3.1900524826193211E+00   3.1958688246389726E+00   3.2016863909755733E+00   3.2075051806013493E+00   3.2133251924899153E+00
   3.2191464256162559E+00   3.2249688789567337E+00   3.2307925514890794E+00   3.2366174421923994E+00   3.2424435500471653E+00
   3.2482708740352142E+00   3.2540994131397407E+00   3.2599291663453092E+00   3.2657601326378276E+00   3.2715923110045675E+00
   3.2774257004341498E+00   3.2832602999165523E+00   3.2890961084430828E+00   3.2949331250064109E+00   3.3007713486005361E+00
   3.3066107782208052E+00   3.3124514128638984E+00   3.3182932515278347E+00   3.3241362932119585E+00   3.3299805369169486E+00
   3.3358259816448119E+00   3.3416726263988683E+00   3.3475204701837842E+00   3.3533695120055214E+00   3.3592197508713677E+00
   3.3650711857899318E+00   3.3709238157711283E+00   3.3767776398261820E+00   3.3826326569676315E+00   3.3884888662093147E+00
   3.3943462665663708E+00   3.4002048570552468E+00   3.4060646366936838E+00   3.4119256045007145E+00   3.4177877594966746E+00
   3.4236511007031813E+00   3.4295156271431457E+00   3.4353813378407660E+00   3.4412482318215178E+00   3.4471163081121632E+00
   3.4529855657407489E+00   3.4588560037365847E+00   3.4647276211302680E+00   3.4706004169536637E+00   3.4764743902398987E+00
   3.4823495400233830E+00   3.4882258653397815E+00   3.4941033652260240E+00   3.4999820387202978E+00   3.5058618848620537E+00
   3.5117429026919935E+00   3.5176250912520861E+00   3.5235084495855307E+00   3.5293929767367920E+00   3.5352786717515743E+00
   3.5411655336768320E+00   3.5470535615607504E+00   3.5529427544527756E+00   3.5588331114035676E+00   3.5647246314650403E+00
   3.5706173136903296E+00   3.5765111571338095E+00   3.5824061608510789E+00   3.5883023238989695E+00   3.5941996453355296E+00
   3.6000981242200365E+00   3.6059977596129804E+00   3.6118985505760772E+00   3.6178004961722512E+00   3.6237035954656474E+00
   3.6296078475216174E+00   3.6355132514067225E+00   3.6414198061887317E+00   3.6473275109366181E+00   3.6532363647205601E+00
   3.6591463666119339E+00   3.6650575156833138E+00   3.6709698110084727E+00   3.6768832516623720E+00   3.6827978367211709E+00
   3.6887135652622218E+00   3.6946304363640512E+00   3.7005484491063796E+00   3.7064676025701129E+00   3.7123878958373360E+00
   3.7183093279913133E+00   3.7242318981164853E+00   3.7301556052984659E+00   3.7360804486240426E+00   3.7420064271811770E+00
   3.7479335400589986E+00   3.7538617863477923E+00   3.7597911651390281E+00   3.7657216755253238E+00   3.7716533166004562E+00
   3.7775860874593694E+00   3.7835199871981575E+00   3.7894550149140764E+00   3.7953911697055189E+00   3.8013284506720444E+00
   3.8072668569143491E+00   3.8132063875342808E+00   3.8191470416348308E+00   3.8250888183201317E+00   3.8310317166954504E+00
   3.8369757358671990E+00   3.8429208749429300E+00   3.8488671330313133E+00   3.8548145092421651E+00   3.8607630026864270E+00
   3.8667126124761677E+00   3.8726633377245814E+00   3.8786151775459867E+00   3.8845681310558260E+00   3.8905221973706561E+00
   3.8964773756081597E+00   3.9024336648871327E+00   3.9083910643274757E+00   3.9143495730502194E+00   3.9203091901774898E+00
   3.9262699148325253E+00   3.9322317461396721E+00   3.9381946832243790E+00   3.9441587252131960E+00   3.9501238712337812E+00
   3.9560901204148791E+00   3.9620574718863382E+00   3.9680259247791012E+00   3.9739954782251998E+00   3.9799661313577666E+00
   3.9859378833110073E+00   3.9919107332202266E+00   3.9978846802218126E+00   4.0038597234532327E+00   4.0098358620530368E+00
   4.0158130951608539E+00   4.0217914219173965E+00   4.0277708414644406E+00   4.0337513529448525E+00   4.0397329555025525E+00
   4.0457156482825418E+00   4.0516994304308911E+00   4.0576843010947332E+00   4.0636702594222633E+00   4.0696573045627442E+00
   4.0756454356664946E+00   4.0816346518849000E+00   4.0876249523703940E+00   4.0936163362764697E+00   4.0996088027576736E+00
   4.1056023509696047E+00   4.1115969800689092E+00   4.1175926892132839E+00   4.1235894775614694E+00   4.1295873442732525E+00
   2.5788442762937521E+01   2.5788442762937521E+01   2.5788442762937521E+01   2.5788442762937521E+01   2.5788442762937521E+01
   2.5788442762937521E+01   2.5788442762937521E+01   2.5788442762937521E+01   2.5788442762937521E+01   2.5788442762937521E+01
   2.5788442762937521E+01   2.5788442762937521E+01   2.5788442762937521E+01   2.5788442762937521E+01   2.5788442762937521E+01
   2.5788442762937521E+01   2.5788442762937521E+01   2.5788442762937521E+01   2.5788442762937521E+01   2.5788442762937521E+01
   2.5788442762937521E+01   2.5788442762937521E+01   2.5788442762937521E+01   2.5788442762937521E+01   2.5788442762937521E+01
   2.5788442762937521E+01   2.5788442762937521E+01   2.5788442762937521E+01   2.5788442762937521E+01   2.5788442762937521E+01
   2.5788442762937521E+01   2.5788442762937521E+01   2.5788442762937521E+01   2.5788442762937521E+01   2.5788442762937521E+01
   2.5788442762937521E+01   2.5788442762937521E+01   2.5788442762937521E+01   2.5788442762937521E+01   2.5788442762937521E+01
   2.5788442762937521E+01   2.5788442762937521E+01   2.5788442762937521E+01   2.5788442762937521E+01   2.5788442762937521E+01
   2.5788442762937521E+01   2.5788442762937521E+01   2.5788442762937521E+01   2.5788442762937521E+01   2.5788442762937521E+01
   2.5788442762937521E+01   2.5788442762937521E+01   2.5788442762937521E+01   2.5788442762937521E+01   2.5788442762937521E+01
   2.5788442762937521E+01   2.5788442762937521E+01   2.5788442762937521E+01   2.5788442762937521E+01   2.5788442762937521E+01
   2.5788442762937521E+01   2.5788442762937521E+01   2.5788442762937521E+01   2.5788442762937521E+01   2.5788442762937521E+01
   2.5788442762937521E+01   2.5788442762937521E+01   2.5788442762937521E+01   2.5788442762937521E+01   2.5788442762937521E+01
   2.5788442762937521E+01   2.5788442762937521E+01   2.5788442762937521E+01   2.5788442762937521E+01   2.5788442762937521E+01
   2.5788442762937521E+01   2.5788442762937521E+01   2.5788442762937521E+01   2.5788442762937521E+01   2.5788442762937521E+01
   2.5788442762937521E+01   2.5788442762937521E+01   2.5788442762937521E+01   2.5788442762937521E+01   2.5788442762937521E+01
   2.5788442762937521E+01   2.5788442762937521E+01   2.5788442762937521E+01   2.5788442762937521E+01   2.5788442762937521E+01
   2.5788442762937521E+01   2.5788442762937521E+01   2.5788442762937521E+01   2.5788442762937521E+01   2.5788442762937521E+01
   2.5788442762937521E+01   2.5788442762937521E+01   2.5788442762937521E+01   2.5788442762937521E+01   2.5788442762937521E+01
   2.5788442762937521E+01   2.5788442762937521E+01   2.5788442762937521E+01   2.5788442762937521E+01   2.5788442762937521E+01
   2.5788442762937521E+01   2.5788442762937521E+01   2.5788442762937521E+01   2.5788442762937521E+01   2.5788442762937521E+01
   2.5788442762937521E+01   2.5788442762937521E+01   2.5788442762937521E+01   2.5788442762937521E+01   2.5788442762937521E+01
   2.5788442762937521E+01   2.5788442762937521E+01   2.5788442762937521E+01   2.5788442762937521E+01   2.5788442762937521E+01
   2.5788442762937521E+01   2.5788442762937521E+01   2.5788442762937521E+01   2.5788442762937521E+01   2.5788442762937521E+01
   2.5788442762937521E+01   2.5788442762937521E+01   2.5788442762937521E+01   2.5788442762937521E+01   2.5788442762937521E+01
   2.5788442762937521E+01   2.5788442762937521E+01   2.5788442762937521E+01   2.5788442762937521E+01   2.5788442762937521E+01
   2.5788442762937521E+01   2.5788442762937521E+01   2.5788442762937521E+01   2.5788442762937521E+01   2.5788442762937521E+01
   2.5788442762937521E+01   2.5788442762937521E+01   2.5788442762937521E+01   2.5788442762937521E+01   2.5788442762937521E+01
   2.5788442762937521E+01   2.5788442762937521E+01   2.5788442762937521E+01   2.5788442762937521E+01   2.5788442762937521E+01
   2.5788442762937521E+01   2.5788442762937521E+01   2.5788442762937521E+01   2.5721314524748013E+01   2.5617588742318958E+01
   2.5514280476522867E+01   2.5411388076791340E+01   2.5308909897968011E+01   2.5206844300331021E+01   2.5105189649613838E+01
   2.5003944317024612E+01   2.4903106679263953E+01   2.4802675118541320E+01   2.4702648022590079E+01   2.4603023784681202E+01
   2.4503800803635563E+01   2.4404977483835189E+01   2.4306552235233152E+01   2.4208523473362440E+01   2.4110889619343546E+01
   2.4013649099891179E+01   2.3916800347319739E+01   2.3820341799548022E+01   2.3724271900102728E+01   2.3628589098121186E+01
   2.3533291848353183E+01   2.3438378611161873E+01   2.3343847852523872E+01   2.3249698044028634E+01   2.3155927662876913E+01
   2.3062535191878624E+01   2.2969519119449945E+01   2.2876877939609692E+01   2.2784610151975077E+01   2.2692714261756851E+01
   2.2601188779753873E+01   2.2510032222346865E+01   2.2419243111491973E+01   2.2328819974713486E+01   2.2238761345096176E+01
   2.2149065761277097E+01   2.2059731767436951E+01   2.1970757913290921E+01   2.1882142754079148E+01   2.1793884850556736E+01
   2.1705982768983329E+01   2.1618435081112381E+01   2.1531240364180043E+01   2.1444397200893537E+01   2.1357904179419453E+01
   2.1271759893371495E+01   2.1185962941798067E+01   2.1100511929169443E+01   2.1015405465364772E+01   2.0930642165658661E+01
   2.0846220650707711E+01   2.0762139546536599E+01   2.0678397484524009E+01   2.0594993101388393E+01   2.0511925039173434E+01
   2.0429191945233359E+01   2.0346792472217981E+01   2.0264725278057725E+01   2.0182989025948281E+01   2.0101582384335217E+01
   2.0020504026898408E+01   1.9939752632536273E+01   1.9859326885350018E+01   1.9779225474627498E+01   1.9699447094827214E+01
   1.9619990445562017E+01   1.9540854231582809E+01   1.9462037162762048E+01   1.9383537954077212E+01   1.9305355325594213E+01
   1.9227488002450659E+01   1.9149934714838977E+01   1.9072694197989691E+01   1.8995765192154355E+01   1.8919146442588637E+01
   1.8842836699535233E+01   1.8766834718206749E+01   1.8691139258768558E+01   1.8615749086321625E+01   1.8540662970885251E+01
   1.8465879687379754E+01   1.8391398015609276E+01   1.8317216740244373E+01   1.8243334650804652E+01   1.8169750541641491E+01
   1.8096463211920543E+01   1.8023471465604413E+01   1.7950774111435212E+01   1.7878369962917173E+01   1.7806257838299182E+01
   1.7734436560557420E+01   1.7662904957377890E+01   1.7591661861139020E+01   1.7520706108894288E+01   1.7450036542354784E+01
   1.7379652007871808E+01   1.7309551356419593E+01   1.7239733443577816E+01   1.7170197129514360E+01   1.7100941278967955E+01
   1.7031964761230888E+01   1.6963266450131709E+01   1.6894845224018042E+01   1.6826699965739291E+01   1.6758829562629465E+01
   1.6691232906490050E+01   1.6623908893572874E+01   1.6556856424562930E+01   1.6490074404561401E+01   1.6423561743068593E+01
   1.6357317353966931E+01   1.6291340155504010E+01   1.6225629070275691E+01   1.6160183025209175E+01   1.6095000951546243E+01
   1.6030081784826383E+01   1.5965424464870063E+01   1.5901027935762018E+01   1.5836891145834619E+01   1.5773013047651164E+01
   1.5709392597989384E+01   1.5646028757824865E+01   1.5582920492314585E+01   1.5520066770780462E+01   1.5457466566692977E+01
   1.5395118857654801E+01   1.5333022625384565E+01   1.5271176855700572E+01   1.5209580538504593E+01   1.5148232667765749E+01
   1.5087132241504458E+01   1.5026278261776294E+01   1.4965669734656100E+01   1.4905305670221995E+01   1.4845185082539514E+01
   1.4785306989645756E+01   1.4725670413533637E+01   1.4666274380136107E+01   1.4607117919310559E+01   1.4548200064823142E+01
   1.4489519854333221E+01   1.4431076329377859E+01   1.4372868535356393E+01   1.4314895521514963E+01   1.4257156340931230E+01
   1.4199650050499047E+01   1.4142375710913225E+01   1.4085332386654343E+01   1.4028519145973641E+01   1.3971935060877893E+01
   1.3915579207114455E+01   1.3859450664156238E+01   1.3803548515186829E+01   1.3747871847085605E+01   1.3692419750413002E+01
   1.3637191319395656E+01   1.3582185651911821E+01   1.3527401849476636E+01   1.3472839017227637E+01   1.3418496263910150E+01
   1.3364372701862862E+01   1.3310467447003376E+01   1.3256779618813876E+01   1.3203308340326807E+01   1.3150052738110588E+01
   1.3097011942255468E+01   1.3044185086359347E+01   1.2991571307513681E+01   1.2939169746289441E+01   1.2886979546723175E+01
   1.2834999856303028E+01   1.2783229825954866E+01   1.2731668610028491E+01   1.2680315366283846E+01   1.2629169255877315E+01
   1.2578229443348050E+01   1.2527495096604357E+01   1.2476965386910145E+01   1.2426639488871460E+01   1.2376516580422978E+01
   1.2326595842814648E+01   1.2276876460598315E+01   1.2227357621614484E+01   1.2178038516979013E+01   1.2128918341069989E+01
   1.2079996291514533E+01   1.2031271569175765E+01   1.1982743378139748E+01   1.1934410925702519E+01   1.1886273422357146E+01
   1.1838330081780871E+01   1.1790580120822273E+01   1.1743022759488468E+01   1.1695657220932436E+01   1.1648482731440321E+01
   1.1601498520418771E+01   1.1554703820382434E+01   1.1508097866941375E+01   1.1461679898788640E+01   1.1415449157687821E+01
   1.1369404888460664E+01   1.1323546338974754E+01   1.1277872760131268E+01   1.1232383405852705E+01   1.1187077533070720E+01
   1.1141954401714013E+01   1.1097013274696250E+01   1.1052253417903975E+01   1.1007674100184712E+01   1.0963274593334944E+01
   1.0919054172088293E+01   1.0875012114103631E+01   1.0831147699953325E+01   1.0787460213111439E+01   1.0743948939942097E+01
   1.0700613169687790E+01   1.0657452194457765E+01   1.0614465309216516E+01   1.0571651811772199E+01   1.0529011002765230E+01
   1.0486542185656823E+01   1.0444244666717641E+01   1.0402117755016459E+01   1.0360160762408857E+01   1.0318373003526037E+01
   1.0276753795763572E+01   1.0235302459270294E+01   1.0194018316937180E+01   1.0152900694386293E+01   1.0111948919959767E+01
   1.0071162324708846E+01   1.0030540242382948E+01   9.9900820094187956E+00   9.9497869649295634E+00   9.9096544506940916E+00
   9.8696838111461425E+00   9.8298743933636885E+00   9.7902255470582311E+00   9.7507366245642153E+00   9.7114069808284160E+00
   9.6722359733994203E+00   9.6332229624171326E+00   9.5943673106023226E+00   9.5556683832462106E+00   9.5171255482001076E+00
   9.4787381758650930E+00   9.4405056391817173E+00   9.4024273136197625E+00   9.3645025771680679E+00   9.3267308103243280E+00
   9.2891113960850014E+00   9.2516437199352275E+00   9.2143271698387839E+00   9.1771611362280883E+00   9.1401450119942638E+00
   9.1032781924771751E+00   9.0665600754556053E+00   9.0299900611373847E+00   8.9935675521496030E+00   8.9572919535288484E+00
   8.9211626727115068E+00   8.8851791195240502E+00   8.8493407061734182E+00   8.8136468472374290E+00   8.7780969596551817E+00
   8.7426904627175581E+00   8.7074267780577337E+00   8.6723053296417216E+00   8.6373255437589691E+00   8.6024868490129940E+00
   8.5677886763120288E+00   8.5332304588597427E+00   8.4988116321459906E+00   8.4645316339375576E+00   8.4303899042690187E+00
   8.3963858854335598E+00   8.3625190219738847E+00   8.3287887606731204E+00   8.2951945505458227E+00   8.2617358428289247E+00
   8.2284120909728031E+00   8.1952227506323485E+00   8.1621672796580711E+00   8.1292451380872333E+00   8.0964557881350530E+00
   8.0637986941858859E+00   8.0312733227845161E+00   7.9988791426274037E+00   7.9666156245540369E+00   7.9344822415382685E+00
   7.9024784686797105E+00   7.8706037831951656E+00   7.8388576644100914E+00   7.8072395937500803E+00   7.7757490547324002E+00
   7.7443855329575433E+00   7.7131485161008557E+00   7.6820374939041267E+00   7.6510519581672956E+00   7.6201914027401010E+00
   7.5894553235138655E+00   7.5588432184132301E+00   7.5283545873879465E+00   7.4979889324047386E+00   7.4677457574391397E+00
   7.4376245684673989E+00   7.4076248734584196E+00   7.3777461823657084E+00   7.3479880071193886E+00   7.3183498616181968E+00
   7.2888312617215725E+00   7.2594317252417353E+00   7.2301507719358247E+00   7.2009879234980128E+00   7.1719427035517516E+00
   7.1430146376419410E+00   7.1142032532272088E+00   7.0855080796721692E+00   7.0569286482397597E+00   7.0284644920835531E+00
   7.0001151462401703E+00   6.9718801476216488E+00   6.9437590350079077E+00   6.9157513490391800E+00   6.8878566322085506E+00
   6.8600744288544355E+00   6.8324042851531903E+00   6.8048457491116547E+00   6.7773983705597880E+00   6.7500617011433093E+00
   6.7228352943163872E+00   6.6957187053343281E+00   6.6687114912463130E+00   6.6418132108881789E+00   6.6150234248751918E+00
   6.5883416955948801E+00   6.5617675871998884E+00   6.5353006656008450E+00   6.5089404984592880E+00   6.4826866551805926E+00
   6.4565387069069429E+00   6.4304962265103143E+00   6.4045587885855086E+00   6.3787259694432032E+00   6.3529973471030292E+00
   6.3273725012866793E+00   6.3018510134110386E+00   6.2764324665813422E+00   6.2511164455843851E+00   6.2259025368817147E+00
   6.2007903286029009E+00   6.1757794105387775E+00   6.1508693741347775E+00   6.1260598124842289E+00   6.1013503203217239E+00
   6.0767404940164944E+00   6.0522299315658197E+00   6.0278182325884515E+00   6.0035049983180961E+00   5.9792898315968701E+00
   5.9551723368688414E+00   5.9311521201735413E+00   5.9072287891395581E+00   5.8834019529780983E+00   5.8596712224766234E+00
   5.8360362099924856E+00   5.8124965294465936E+00   5.7890517963171080E+00   5.7657016276331641E+00   5.7424456419686098E+00
   5.7192834594357729E+00   5.6962147016792670E+00   5.6732389918697965E+00   5.6503559546980151E+00   5.6275652163683896E+00
   5.6048664045930829E+00   5.5822591485858943E+00   5.5597430790561839E+00   5.5373178282028519E+00   5.5149830297083193E+00
   5.4927383187325622E+00   5.4705833319071262E+00   5.4485177073292173E+00   5.4265410845557733E+00   5.4046531045975810E+00
   5.3828534099134107E+00   5.3611416444041842E+00   5.3395174534071366E+00   5.3179804836900537E+00   5.2965303834454698E+00
   5.2751668022849483E+00   5.2538893912333382E+00   5.2326978027230870E+00   5.2115916905885555E+00   5.1905707100603626E+00
   5.1696345177597598E+00   5.1487827716930168E+00   5.1280151312458369E+00   5.1073312571777940E+00   5.0867308116167864E+00
   5.0662134580535261E+00   5.0457788613360330E+00   5.0254266876641687E+00   5.0051566045841724E+00   4.9849682809832423E+00
   4.9648613870841194E+00   4.9448355944397067E+00   4.9248905759276962E+00   4.9050260057452295E+00   4.8852415594035774E+00
   4.8655369137228366E+00   4.8459117468266513E+00   4.8263657381369587E+00   4.8068985683687409E+00   4.7875099195248270E+00
   4.7681994748906860E+00   4.7489669190292529E+00   4.7298119377757892E+00   4.7107342182327283E+00   4.6917334487645839E+00
   4.6728093189928570E+00   4.6539615197909576E+00   4.6351897432791569E+00   4.6164936828195646E+00   4.5978730330111137E+00
   4.5793274896845784E+00   4.5608567498975923E+00   4.5424605119297166E+00   4.5241384752774980E+00   4.5058903406495689E+00
   4.4877158099617525E+00   4.4696145863321988E+00   4.4515863740765287E+00   4.4336308787030116E+00   4.4157478069077438E+00
   4.3979368665698733E+00   4.3801977667468126E+00   4.3625302176694936E+00   4.3449339307376356E+00   4.3274086185150260E+00
   4.3099539947248298E+00   4.2925697742449085E+00   4.2752556731031675E+00   4.2580114084729122E+00   4.2408366986682324E+00
   4.2237312631394035E+00   4.2066948224682905E+00   4.1897270983638020E+00   4.1728278136573271E+00   4.1559966922982250E+00
   4.1392334593492972E+00   4.1225378409823099E+00   4.1059095644735182E+00   4.0893483581992074E+00   4.0728539516312594E+00
   4.0564260753327357E+00   4.0400644609534631E+00   4.0237688412256736E+00   4.0075389499596126E+00   3.9913745220392132E+00
   3.9752752934177469E+00   3.9592410011135284E+00   3.9432713832056012E+00   3.9273661788294705E+00   3.9115251281728471E+00
   3.8957479724713853E+00   3.8800344540044742E+00   3.8643843160910163E+00   3.8487973030852376E+00   3.8332731603725203E+00
   3.8178116343652251E+00   3.8024124724985668E+00   3.7870754232264825E+00   3.7718002360175142E+00   3.7565866613507315E+00
   3.7414344507116408E+00   3.7263433565881425E+00   3.7113131324664694E+00   3.6963435328271692E+00   3.6814343131411023E+00
   3.6665852298654280E+00   3.6517960404396437E+00   3.6370665032816132E+00   3.6223963777836197E+00   3.6077854243084477E+00
   3.5932334041854523E+00   3.5787400797066669E+00   3.5643052141229283E+00   3.5499285716399953E+00   3.5356099174147086E+00
   3.5213490175511466E+00   3.5071456390968065E+00   3.4929995500388094E+00   3.4789105193000891E+00   3.4648783167356414E+00
   3.4509027131287469E+00   3.4369834801872314E+00   3.4231203905397432E+00   3.4093132177320289E+00   3.3955617362232471E+00
   3.3818657213822685E+00   3.3682249494840160E+00   3.3546391977058141E+00   3.3411082441237387E+00   3.3276318677089973E+00
   3.3142098483243210E+00   3.3008419667203590E+00   3.2875280045321142E+00   3.2742677442753556E+00   3.2610609693430845E+00
   3.2479074640019809E+00   3.2348070133888882E+00   3.2217594035073041E+00   3.2087644212238762E+00   3.1958218542649353E+00
   3.1829314912130124E+00   3.1700931215033910E+00   3.1573065354206755E+00   3.1445715240953502E+00   3.1318878795003817E+00
   3.1192553944478107E+00   3.1066738625853745E+00   3.0941430783931323E+00   3.0816628371801071E+00   3.0692329350809442E+00
   3.0568531690525869E+00   3.0445233368709443E+00   3.0322432371276040E+00   3.0200126692265314E+00   3.0078314333808018E+00
   2.9956993306093276E+00   2.9836161627336115E+00   2.9715817323745179E+00   2.9595958429490321E+00   2.9476582986670614E+00
   2.9357689045282327E+00   2.9239274663187111E+00   2.9121337906080207E+00   2.9003876847458887E+00   2.8886889568590970E+00
   2.8770374158483545E+00   2.8654328713851638E+00   2.8538751339087218E+00   2.8423640146228175E+00   2.8308993254927532E+00
   2.8194808792422696E+00   2.8081084893504822E+00   2.7967819700488490E+00   2.7855011363181168E+00   2.7742658038853123E+00
   2.7630757892207289E+00   2.7519309095349276E+00   2.7408309827757522E+00   2.7297758276253514E+00   2.7187652634972221E+00
   2.7077991105332622E+00   2.6968771896008201E+00   2.6859993222897827E+00   2.6751653309096532E+00   2.6643750384866491E+00
   2.6536282687608148E+00   2.6429248461831376E+00   2.6322645959126825E+00   2.6216473438137409E+00   2.6110729164529749E+00
   2.6005411410965960E+00   2.5900518457075363E+00   2.5796048589426381E+00   2.5692000101498622E+00   2.5588371293654890E+00
   2.5485160473113555E+00   2.5382365953920769E+00   2.5279986056922996E+00   2.5178019109739629E+00   2.5076463446735540E+00
   2.4975317408994009E+00   2.4874579344289520E+00   2.4774247607060831E+00   2.4674320558384117E+00   2.4574796565946095E+00
   2.4475674004017467E+00   2.4376951253426333E+00   2.4278626701531683E+00   2.4180698742197153E+00   2.4083165775764686E+00
   2.3986026209028526E+00   2.3889278455209051E+00   2.3792920933926935E+00   2.3696952071177368E+00   2.3601370299304234E+00
   2.3506174056974611E+00   2.3411361789153196E+00   2.3316931947076918E+00   2.3222882988229698E+00   2.3129213376317144E+00
   2.3035921581241570E+00   2.2943006079076906E+00   2.2850465352043852E+00   2.2758297888485095E+00   2.2666502182840587E+00
   2.2575076735622948E+00   2.2484020053393041E+00   2.2393330648735446E+00   2.2303007040234326E+00   2.2213047752449069E+00
   2.2123451315890295E+00   2.2034216266995821E+00   2.1945341148106707E+00   2.1856824507443560E+00   2.1768664899082686E+00
   2.1680860882932533E+00   2.1593411024710223E+00   2.1506313895917990E+00   2.1419568073819981E+00   2.1333172141418917E+00
   2.1247124687432981E+00   2.1161424306272818E+00   2.1076069598018452E+00   2.0991059168396573E+00   2.0906391628757612E+00
   2.0822065596053148E+00   2.0738079692813298E+00   2.0654432547124193E+00   2.0571122792605623E+00   2.0488149068388646E+00
   2.0405510019093378E+00   2.0323204294806918E+00   2.0241230551061196E+00   2.0159587448811096E+00   2.0078273654412517E+00
   1.9997287839600635E+00   1.9916628681468196E+00   1.9836294862443882E+00   1.9756285070270794E+00   1.9676597997985079E+00
   1.9597232343894471E+00   1.9518186811557128E+00   1.9439460109760378E+00   1.9361050952499688E+00   1.9282958058957629E+00
   1.9205180153482921E+00   1.9127715965569694E+00   1.9050564229836611E+00   1.8973723686006274E+00   1.8897193078884627E+00
   1.8820971158340449E+00   1.8745056679284924E+00   1.8669448401651301E+00   1.8594145090374636E+00   1.8519145515371671E+00
   1.8444448451520634E+00   1.8370052678641340E+00   1.8295956981475165E+00   1.8222160149665263E+00   1.8148660977736764E+00
   1.8075458265077060E+00   1.8002550815916283E+00   1.7929937439307644E+00   1.7857616949108066E+00   1.7785588163958792E+00
   1.7713849907266077E+00   1.7642401007181987E+00   1.7571240296585209E+00   1.7500366613062039E+00   1.7429778798887388E+00
   1.7359475701005835E+00   1.7289456171012823E+00   1.7219719065135892E+00   1.7150263244215984E+00   1.7081087573688862E+00
   1.7012190923566537E+00   1.6943572168418846E+00   1.6875230187355059E+00   1.6807163864005554E+00   1.6739372086503594E+00
   1.6671853747467162E+00   1.6604607743980870E+00   1.6537632977577961E+00   1.6470928354222303E+00   1.6404492784290632E+00
   1.6338325182554636E+00   1.6272424468163269E+00   1.6206789564625155E+00   1.6141419399790897E+00   1.6076312905835657E+00
   1.6011469019241646E+00   1.5946886680780781E+00   1.5882564835497415E+00   1.5818502432691017E+00   1.5754698425899116E+00
   1.5691151772880108E+00   1.5627861435596295E+00   1.5564826380196914E+00   1.5502045577001222E+00   1.5439518000481738E+00
   1.5377242629247410E+00   1.5315218446026984E+00   1.5253444437652401E+00   1.5191919595042174E+00   1.5130642913184986E+00
   1.5069613391123231E+00   1.5008830031936651E+00   1.4948291842726111E+00   1.4887997834597284E+00   1.4827947022644614E+00
   1.4768138425935122E+00   1.4708571067492437E+00   1.4649243974280839E+00   1.4590156177189335E+00   1.4531306711015850E+00
   1.4472694614451485E+00   1.4414318930064727E+00   1.4356178704285936E+00   1.4298272987391645E+00   1.4240600833489121E+00
   1.4183161300500899E+00   1.4125953450149367E+00   1.4068976347941504E+00   1.4012229063153523E+00   1.3955710668815731E+00
   1.3899420241697391E+00   1.3843356862291591E+00   1.3787519614800288E+00   1.3731907587119276E+00   1.3676519870823349E+00
   1.3621355561151447E+00   1.3566413756991846E+00   1.3511693560867470E+00   1.3457194078921213E+00   1.3402914420901355E+00
   1.3348853700147012E+00   1.3295011033573634E+00   1.3241385541658623E+00   1.3187976348426920E+00   1.3134782581436701E+00
   1.3081803371765182E+00   1.3029037853994334E+00   1.2976485166196838E+00   1.2924144449921933E+00   1.2872014850181426E+00
   1.2820095515435734E+00   1.2768385597579959E+00   1.2716884251930025E+00   1.2665590637208901E+00   1.2614503915532835E+00
   1.2563623252397722E+00   1.2512947816665392E+00   1.2462476780550071E+00   1.2412209319604901E+00   1.2362144612708383E+00
   1.2312281842051056E+00   1.2262620193122067E+00   1.2213158854695894E+00   1.2163897018819130E+00   1.2114833880797191E+00
   1.2065968639181286E+00   1.2017300495755237E+00   1.1968828655522470E+00   1.1920552326693046E+00   1.1872470720670687E+00
   1.1824583052039956E+00   1.1776888538553361E+00   1.1729386401118587E+00   1.1682075863785837E+00   1.1634956153735063E+00
   1.1588026501263413E+00   1.1541286139772609E+00   1.1494734305756440E+00   1.1448370238788332E+00   1.1402193181508844E+00
   1.1356202379613372E+00   1.1310397081839783E+00   1.1264776539956147E+00   1.1219340008748537E+00   1.1174086746008831E+00
   1.1129016012522610E+00   1.1084127072057057E+00   1.1039419191348940E+00   1.0994891640092659E+00   1.0950543690928267E+00
   1.0906374619429624E+00   1.0862383704092562E+00   1.0818570226323070E+00   1.0774933470425603E+00   1.0731472723591333E+00
   1.0688187275886536E+00   1.0645076420241022E+00   1.0602139452436519E+00   1.0559375671095215E+00   1.0516784377668287E+00
   1.0474364876424500E+00   1.0432116474438824E+00   1.0390038481581105E+00   1.0348130210504851E+00   1.0306390976635911E+00
   1.0264820098161360E+00   1.0223416896018351E+00   1.0182180693882981E+00   1.0141110818159298E+00   1.0100206597968253E+00
   1.0059467365136743E+00   1.0018892454186739E+00   9.9784812023243563E-01   9.9382329494290533E-01   9.8981470380428394E-01
   9.8582228133595595E-01   9.8184596232141530E-01   9.7788568180720103E-01   9.7394137510184076E-01   9.7001297777478557E-01
   9.6610042565536325E-01   9.6220365483172898E-01   9.5832260164981853E-01   9.5445720271231138E-01   9.5060739487759149E-01
   9.4677311525871755E-01   9.4295430122239743E-01   9.3915089038795951E-01   9.3536282062633713E-01   9.3159003005905205E-01
   9.2783245705720518E-01   9.2409004024046626E-01   9.2036271847607309E-01   9.1665043087783027E-01   9.1295311680511881E-01
   9.0927071586189812E-01   9.0560316789572604E-01   9.0195041299677037E-01   8.9831239149683095E-01   8.9468904396836801E-01
   8.9108031122352460E-01   8.8748613431316503E-01   8.8390645452590733E-01   8.8034121338716431E-01   8.7679035265818983E-01
   8.7325381433512372E-01   8.6973154064804525E-01   8.6622347406002764E-01   8.6272955726619838E-01   8.5924973319280296E-01
   8.5578394499626842E-01   8.5233213606227753E-01   8.4889425000484076E-01   8.4547023066537386E-01   8.4206002211178232E-01
   8.3866356863754277E-01   8.3528081476079608E-01   8.3191170522343505E-01   8.2855618499020323E-01   8.2521419924779638E-01
   8.2188569340396167E-01   8.1857061308660695E-01   8.1526890414291098E-01   8.1198051263843596E-01   8.0870538485624821E-01
   8.0544346729603500E-01   8.0219470667322967E-01   7.9895904991814359E-01   7.9573644417509148E-01   7.9252683680153069E-01
   7.8933017536719630E-01   7.8614640765324340E-01   7.8297548165139452E-01   7.7981734556308324E-01   7.7667194779861004E-01
   7.7353923697629390E-01   7.7041916192163240E-01   7.6731167166646308E-01   7.6421671544812608E-01   7.6113424270863705E-01
   7.5806420309385270E-01   7.5500654645264753E-01   7.5196122283609423E-01   7.4892818249663917E-01   7.4590737588729195E-01
   7.4289875366080838E-01   7.3990226666888270E-01   7.3691786596134146E-01   7.3394550278533854E-01   7.3098512858455700E-01
   7.2803669499840928E-01   7.2510015386124405E-01   7.2217545720155629E-01   7.1926255724119637E-01   7.1636140639458845E-01
   7.1347195726794455E-01   7.1059416265848729E-01   7.0772797555367439E-01   7.0487334913042343E-01   7.0203023675434140E-01
   6.9919859197895984E-01   6.9637836854496593E-01   6.9356952037944508E-01   6.9077200159511787E-01   6.8798576648958609E-01
   6.8521076954458016E-01   6.8244696542520522E-01   6.7969430897919669E-01   6.7695275523617227E-01   6.7422225940689273E-01
   6.7150277688251869E-01   6.6879426323387514E-01   6.6609667421071850E-01   6.6340996574100197E-01   6.6073409393014737E-01
   6.5806901506032067E-01   6.5541468558970462E-01   6.5277106215178016E-01   6.5013810155460527E-01   6.4751576078009931E-01
   6.4490399698333101E-01   6.4230276749180348E-01   6.3971202980474806E-01   6.3713174159241537E-01   6.3456186069537457E-01
   6.3200234512380737E-01   6.2945315305681127E-01   6.2691424284170227E-01   6.2438557299331809E-01   6.2186710219332753E-01
   6.1935878928954025E-01   6.1686059329521636E-01   6.1437247338838386E-01   6.1189438891115178E-01   6.0942629936902992E-01
   6.0696816443025126E-01   6.0451994392509123E-01   6.0208159784519422E-01   5.9965308634290049E-01   5.9723436973057553E-01
   5.9482540847993892E-01   5.9242616322139896E-01   5.9003659474338543E-01   5.8765666399168959E-01   5.8528633206879865E-01
   5.8292556023323872E-01   5.8057430989891612E-01   5.7823254263446067E-01   5.7590022016257381E-01   5.7357730435937171E-01
   5.7126375725373979E-01   5.6895954102667856E-01   5.6666461801065837E-01   5.6437895068897426E-01   5.6210250169509945E-01
   5.5983523381204336E-01   5.5757710997171017E-01   5.5532809325425836E-01   5.5308814688746366E-01   5.5085723424607969E-01
   5.4863531885120387E-01   5.4642236436964142E-01   5.4421833461327296E-01   5.4202319353842299E-01   5.3983690524522698E-01
   5.3765943397700477E-01   5.3549074411962883E-01   5.3333080020089774E-01   5.3117956688991141E-01   5.2903700899644290E-01
   5.2690309147031522E-01   5.2477777940077708E-01   5.2266103801588049E-01   5.2055283268185892E-01   5.1845312890250472E-01
   5.1636189231854857E-01   5.1427908870704220E-01   5.1220468398073415E-01   5.1013864418745614E-01   5.0808093550950073E-01
   5.0603152426300491E-01   5.0399037689733339E-01   5.0195745999446029E-01   4.9993274026835294E-01   4.9791618456435421E-01
   4.9590775985856772E-01   4.9390743325723957E-01   4.9191517199614349E-01   4.8993094343996441E-01   4.8795471508168148E-01
   4.8598645454195094E-01   4.8402612956849239E-01   4.8207370803546745E-01   4.8012915794286654E-01   4.7819244741588879E-01
   4.7626354470432447E-01   4.7434241818193745E-01   4.7242903634584377E-01   4.7052336781589460E-01   4.6862538133405279E-01
   4.6673504576377323E-01   4.6485233008937982E-01   4.6297720341544218E-01   4.6110963496615237E-01   4.5924959408469734E-01
   4.5739705023263372E-01   4.5555197298926020E-01   4.5371433205098693E-01   4.5188409723070500E-01   4.5006123845715540E-01
   4.4824572577429300E-01   4.4643752934065306E-01   4.4463661942871169E-01   4.4284296642424720E-01   4.4105654082569989E-01
   4.3927731324352642E-01   4.3750525439955507E-01   4.3574033512633786E-01   4.3398252636650070E-01   4.3223179917208887E-01
   4.3048812470391218E-01   4.2875147423088789E-01   4.2702181912937776E-01   4.2529913088252458E-01   4.2358338107958660E-01
   4.2187454141526437E-01   4.2017258368903054E-01   4.1847747980444971E-01   4.1678920176850021E-01   4.1510772169088928E-01
   4.1343301178336500E-01   4.1176504435902450E-01   4.1010379183161810E-01   4.0844922671485012E-01   4.0680132162167321E-01
   4.0516004926358040E-01   4.0352538244989233E-01   4.0189729408703784E-01   4.0027575717783181E-01   3.9866074482074798E-01
   3.9705223020918429E-01   3.9545018663072640E-01   3.9385458746640190E-01   3.9226540618993178E-01   3.9068261636697649E-01
   3.8910619165437194E-01   3.8753610579936448E-01   3.8597233263883646E-01   3.8441484609852705E-01   3.8286362019224379E-01
   3.8131862902107150E-01   3.7977984677256971E-01   3.7824724771996765E-01   3.7672080622134635E-01   3.7520049671881922E-01
   3.7368629373769963E-01   3.7217817188566410E-01   3.7067610585190636E-01   3.6918007040628187E-01   3.6769004039844633E-01
   3.6620599075698257E-01   3.6472789648852061E-01   3.6325573267684913E-01   3.6178947448201426E-01   3.6032909713941236E-01
   3.5887457595887184E-01   3.5742588632372335E-01   3.5598300368986308E-01   3.5454590358480170E-01   3.5311456160670635E-01
   3.5168895342342826E-01   3.5026905477152098E-01   3.4885484145524881E-01   3.4744628934557847E-01   3.4604337437916588E-01
   3.4464607255732244E-01   3.4325435994497744E-01   3.4186821266962159E-01   3.4048760692023944E-01   3.3911251894622896E-01
   3.3774292505630754E-01   3.3637880161740408E-01   3.3502012505353634E-01   3.3366687184467403E-01   3.3231901852558859E-01
   3.3097654168468593E-01   3.2963941796282642E-01   3.2830762405212610E-01   3.2698113669474455E-01   3.2565993268165577E-01
   3.2434398885140270E-01   3.2303328208883464E-01   3.2172778932382823E-01   3.2042748752998906E-01   3.1913235372333837E-01
   3.1784236496097923E-01   3.1655749833974639E-01   3.1527773099483464E-01   3.1400304009841062E-01   3.1273340285820428E-01
   3.1146879651607895E-01   3.1020919834658572E-01   3.0895458565549094E-01   3.0770493577828817E-01   3.0646022607868634E-01
   3.0522043394707737E-01   3.0398553679898133E-01   3.0275551207346946E-01   3.0153033723156375E-01   3.0030998975461498E-01
   2.9909444714265604E-01   2.9788368691273298E-01   2.9667768659720922E-01   2.9547642374204780E-01   2.9427987590506777E-01
   2.9308802065417461E-01   2.9190083556556695E-01   2.9071829822191392E-01   2.8954038621050926E-01   2.8836707712139653E-01
   2.8719834854546811E-01   2.8603417807253750E-01   2.8487454328937983E-01   2.8371942177774845E-01   2.8256879111236038E-01
   2.8142262885885277E-01   2.8028091257171134E-01   2.7914361979216584E-01   2.7801072804605881E-01   2.7688221484168107E-01
   2.7575805766757733E-01   2.7463823399032139E-01   2.7352272125225657E-01   2.7241149686920690E-01   2.7130453822815537E-01
   2.7020182268488829E-01   2.6910332756160726E-01   2.6800903014450944E-01   2.6691890768132942E-01   2.6583293737885222E-01
   2.6475109640038880E-01   2.6367336186321788E-01   2.6259971083599398E-01   2.6153012033611728E-01   2.6046456732707129E-01
   2.5940302871572285E-01   2.5834548134958701E-01   2.5729190201405705E-01   2.5624226742959488E-01   2.5519655424888804E-01
   2.5415473905396957E-01   2.5311679835329987E-01   2.5208270857881482E-01   2.5105244608293198E-01   2.5002598713552476E-01
   2.4900330792085715E-01   2.4798438453448227E-01   2.4696919298010372E-01   2.4595770916640014E-01   2.4494990890381288E-01
   2.4394576790129754E-01   2.4294526176303849E-01   2.4194836598512851E-01   2.4095505595220981E-01   2.3996530693408208E-01
   2.3897909408227386E-01   2.3799639242657900E-01   2.3701717687156043E-01   2.3604142219301610E-01   2.3506910303441536E-01
   2.3410019390330089E-01   2.3313466916765790E-01   2.3217250305225395E-01   2.3121366963494561E-01   2.3025814284295740E-01
   2.2930589644913116E-01   2.2835690406814751E-01   2.2741113915272271E-01   2.2646857498977588E-01   2.2552918469657665E-01
   2.2459294121686776E-01   2.2365981731696608E-01   2.2272978558184681E-01   2.2180281841120530E-01   2.2087888801550631E-01
   2.1995796641201770E-01   2.1904002542083192E-01   2.1812503666087804E-01   2.1721297154592467E-01   2.1630380128057930E-01
   2.1539749685628334E-01   2.1449402904730808E-01   2.1359336840675400E-01   2.1269548526255364E-01   2.1180034971348566E-01
   2.1090793162520080E-01   2.1001820062626295E-01   2.0913112610421189E-01   2.0824667720164597E-01   2.0736482281233620E-01
   2.0648553157737010E-01   2.0560877188133270E-01   2.0473451184852917E-01   2.0386271933925204E-01   2.0299336194610182E-01
   2.0212640699036269E-01   2.0126182151844221E-01   2.0039957229837838E-01   1.9953962581642090E-01   1.9868194827369498E-01
   1.9782650558295209E-01   1.9697326336541543E-01   1.9612218694772779E-01   1.9527324135901097E-01   1.9442639132803902E-01
   1.9358160128054164E-01   1.9273883533664030E-01   1.9189805730842846E-01   1.9105923069770511E-01   1.9022231869386980E-01
   1.8938728417199147E-01   1.8855408969106041E-01   1.8772269749243237E-01   1.8689306949847981E-01   1.8606516731145781E-01
   1.8523895221259953E-01   1.8441438516145184E-01   1.8359142679546428E-01   1.8277003742984704E-01   1.8195017705770442E-01
   1.8113180535046811E-01   1.8031488165863552E-01   1.7949936501283342E-01   1.7868521412522115E-01   1.7787238739124722E-01
   1.7706084289177773E-01   1.7625053839561394E-01   1.7544143136241205E-01   1.7463347894602874E-01   1.7382663799830408E-01
   1.7302086507330605E-01   1.7221611643205167E-01   1.7141234804772493E-01   1.7060951561141388E-01   1.6980757453838125E-01
   1.6900647997489560E-01   1.6820618680564023E-01   1.6740664966172075E-01   1.6660782292929621E-01   1.6580966075885084E-01
   1.6501211707513391E-01   1.6421514558778691E-01   1.6341869980268053E-01   1.6262273303398816E-01   1.6182719841701410E-01
   1.6103204892180406E-01   1.6023723736755927E-01   1.5944271643787825E-01   1.5864843869685077E-01   1.5785435660602504E-01
   1.5706042254227512E-01   1.5626658881658934E-01   1.5547280769380453E-01   1.5467903141330816E-01   1.5388521221073023E-01
   1.5309130234065052E-01   1.5229725410033848E-01   1.5150301985455042E-01   1.5070855206140435E-01   1.4991380329934917E-01
   1.4911872629525230E-01   1.4832327395361955E-01   1.4752739938696693E-01   1.4673105594736063E-01   1.4593419725913626E-01
   1.4513677725281643E-01   1.4433875020023426E-01   1.4354007075087477E-01   1.4274069396944369E-01   1.4194057537466684E-01
   1.4113967097933031E-01   1.4033793733155794E-01   1.3953533155733186E-01   1.3873181140424914E-01   1.3792733528651371E-01
   1.3712186233115176E-01   1.3631535242544476E-01   1.3550776626556177E-01   1.3469906540637755E-01   1.3388921231245596E-01
   1.3307817041017037E-01   1.3226590414094017E-01   1.3145237901554688E-01   1.3063756166949619E-01   1.2982141991938587E-01
   1.2900392282023507E-01   1.2818504072372602E-01   1.2736474533730680E-01   1.2654300978409419E-01   1.2571980866351604E-01
   1.2489511811262285E-01   1.2406891586799774E-01   1.2324118132818478E-01   1.2241189561655205E-01   1.2158104164450265E-01
   1.2074860417493356E-01   1.1991456988585009E-01   1.1907892743402378E-01   1.1824166751858650E-01   1.1740278294444376E-01
   1.1656226868538401E-01   1.1572012194675824E-01   1.1487634222759731E-01   1.1403093138202924E-01   1.1318389367985474E-01
   1.1233523586613105E-01   1.1148496721961665E-01   1.1063309960991692E-01   1.0977964755317191E-01   1.0892462826612360E-01
   1.0806806171839033E-01   1.0720997068278454E-01   1.0635038078349575E-01   1.0548932054196419E-01   1.0462682142026973E-01
   1.0376291786185507E-01   1.0289764732940496E-01   1.0203105033970328E-01   1.0116317049528654E-01   1.0029405451271860E-01
   9.9423752247307123E-02   9.8552316714091148E-02   9.7679804104927201E-02   9.6806273801507345E-02   9.5931788384148162E-02
   9.5056413636189885E-02   9.4180218543860356E-02   9.3303275291455254E-02   9.2425659251700501E-02   9.1547448971169593E-02
   9.0668726150633414E-02   8.9789575620240078E-02   8.8910085309422793E-02   8.8030346211450394E-02   8.7150452342549034E-02
   8.6270500695530342E-02   8.5390591187883502E-02   8.4510826604295208E-02   8.3631312533581068E-02   8.2752157300027773E-02
   8.1873471889154503E-02   8.0995369867930975E-02   8.0117967299493456E-02   7.9241382652425044E-02   7.8365736704683026E-02
   7.7491152442267300E-02   7.6617754952753261E-02   7.5745671313818444E-02   7.4875030476916918E-02   7.4005963146269588E-02
   7.3138601653359031E-02   7.2273079827128495E-02   7.1409532860109343E-02   7.0548097170709062E-02   6.9688910261912762E-02
   6.8832110576665009E-02   6.7977837350207002E-02   6.7126230459668826E-02   6.6277430271216187E-02   6.5431577485070141E-02
   6.4588812978727470E-02   6.3749277648711869E-02   6.2913112251205980E-02   6.2080457241908749E-02   6.1251452615475287E-02
   6.0426237744897991E-02   5.9604951221189001E-02   5.8787730693729515E-02   5.7974712711646122E-02   5.7166032566575875E-02
   5.6361824137180411E-02   5.5562219735757312E-02   5.4767349957303840E-02   5.3977343531368648E-02   5.3192327177025919E-02
   5.2412425461296208E-02   5.1637760661321259E-02   5.0868452630598970E-02   5.0104618669560209E-02   4.9346373400762047E-02
   4.8593828648954791E-02   4.7847093326261990E-02   4.7106273322700211E-02   4.6371471402243396E-02   4.5642787104620261E-02
   4.4920316653016115E-02   4.4204152867824809E-02   4.3494385086587636E-02   4.2791099090225514E-02   4.2094377035656709E-02
   4.1404297394872856E-02   4.0720934900519638E-02   4.0044360498019065E-02   3.9374641304240718E-02   3.8711840572715615E-02
   3.8056017665366780E-02   3.7407228030709470E-02   3.6765523188460873E-02   3.6130950720476916E-02   3.5503554267921331E-02
   3.4883373534553050E-02   3.4270444296005280E-02   3.3664798414915285E-02   3.3066463861749093E-02   3.2475464741154245E-02
   3.1891821323663326E-02   3.1315550082556105E-02   3.0746663735686068E-02   3.0185171292061563E-02   2.9631078102968188E-02
   2.9084385917412279E-02   2.8545092941657652E-02   2.8013193902627249E-02   2.7488680114933543E-02   2.6971539551302364E-02
   2.6461756916150627E-02   2.5959313722079262E-02   2.5464188369042892E-02   2.4976356225956977E-02   2.4495789714506604E-02
   2.4022458394922480E-02   2.3556329053494200E-02   2.3097365791590885E-02   2.2645530115970151E-02   2.2200781030154611E-02
   2.1763075126664502E-02   2.1332366679900499E-02   2.0908607739475005E-02   2.0491748223800357E-02   2.0081736013746593E-02
   1.9678517046189167E-02   1.9282035407277041E-02   1.8892233425255145E-02   1.8509051762687617E-02   1.8132429507932750E-02
   1.7762304265730597E-02   1.7398612246772634E-02   1.7041288356128153E-02   1.6690266280415270E-02   1.6345478573607613E-02
   1.6006856741378635E-02   1.5674331323892808E-02   1.5347831976959788E-02   1.5027287551477248E-02   1.4712626171093845E-02
   1.4403775308031068E-02   1.4100661857011762E-02   1.3803212207246987E-02   1.3511352312442479E-02   1.3225007758790132E-02
   1.2944103830917103E-02   1.2668565575771510E-02   1.2398317864426892E-02   1.2133285451797017E-02   1.1873393034253591E-02
   1.1618565305146785E-02   1.1368727008232386E-02   1.1123802989012863E-02   1.0883718244005252E-02   1.0648397967951194E-02
   1.0417767598987876E-02   1.0191752861803564E-02   9.9702798088017082E-03   9.7532748593031748E-03   9.5406648368165006E-03
   9.3323770044093524E-03   9.1283390982168471E-03   8.9284793591222870E-03   8.7327265626506202E-03   8.5410100471133999E-03
   8.3532597400469595E-03   8.1694061829863818E-03   7.9893805546178975E-03   7.8131146923547702E-03   7.6405411123801684E-03
   7.4715930282030522E-03   7.3062043677720899E-03   7.1443097891929963E-03   6.9858446950954488E-03   6.8307452456948794E-03
   6.6789483705946605E-03   6.5303917793742517E-03   6.3850139710074109E-03   6.2427542421560215E-03   6.1035526943827682E-03
   5.9673502403263844E-03   5.8340886088823598E-03   5.7037103494309224E-03   5.5761588351543132E-03   5.4513782654832836E-03
   5.3293136677132332E-03   5.2099108978287730E-03   5.0931166405745690E-03   4.9788784088101610E-03   4.8671445421846326E-03
   4.7578642051666663E-03   4.6509873844642786E-03   4.5464648858678609E-03   4.4442483305484337E-03   4.3442901508433029E-03
   4.2465435855590650E-03   4.1509626748216458E-03   4.0575022545019648E-03   3.9661179502446268E-03   3.8767661711263269E-03
   3.7894041029697088E-03   3.7039897013371797E-03   3.6204816842286811E-03   3.5388395245059792E-03   3.4590234420657953E-03
   3.3809943957825591E-03   3.3047140752411261E-03   3.2301448922789312E-03   3.1572499723556847E-03   3.0859931457689299E-03
   3.0163389387319267E-03   2.9482525643302008E-03   2.8816999133721996E-03   2.8166475451485858E-03   2.7530626781142394E-03
   2.6909131805062754E-03   2.6301675609105824E-03   2.5707949587889479E-03   2.5127651349779461E-03   2.4560484621705268E-03
   2.4006159153902918E-03   2.3464390624680586E-03   2.2934900545298815E-03   2.2417416165047043E-03   2.1911670376600786E-03
   2.1417401621731179E-03   2.0934353797438677E-03   2.0462276162577582E-03   2.0000923245030162E-03   1.9550054749491739E-03
   1.9109435465917153E-03   1.8678835178679569E-03   1.8258028576487813E-03   1.7846795163103536E-03   1.7444919168899118E-03
   1.7052189463291031E-03   1.6668399468082076E-03   1.6293347071743263E-03   1.5926834544660500E-03   1.5568668455373791E-03
   1.5218659587828865E-03   1.4876622859661725E-03   1.4542377241534539E-03   1.4215745677536066E-03   1.3896555006662824E-03
   1.3584635885390424E-03   1.3279822711345360E-03   1.2981953548085561E-03   1.2690870050994963E-03   1.2406417394298158E-03
   1.2128444199197418E-03   1.1856802463134451E-03   1.1591347490177955E-03   1.1331937822535046E-03   1.1078435173186788E-03
   1.0830704359643744E-03   1.0588613238818206E-03   1.0352032643008993E-03   1.0120836316991936E-03   9.8949008562115512E-04
   9.6741056460655339E-04   9.4583328022748389E-04   9.2474671123308160E-04   9.0413959780107599E-04   8.8400093589516618E-04
   8.6431997172729791E-04   8.4508619632373807E-04   8.2628934019387331E-04   8.0791936810063617E-04   7.8996647393130752E-04
   7.7242107566762518E-04   7.5527381045389008E-04   7.3851552976185030E-04   7.2213729465113094E-04   7.0613037112383058E-04
   6.9048622557210909E-04   6.7519652031735797E-04   6.6025310923965592E-04   6.4564803349619266E-04   6.3137351732726660E-04
   6.1742196394857173E-04   6.0378595152837109E-04   5.9045822924822021E-04   5.7743171344591291E-04   5.6469948383921326E-04
   5.5225477982913515E-04   5.4009099688133574E-04   5.2820168298431597E-04   5.1658053518309542E-04   5.0522139618701585E-04
   4.9411825105034695E-04   4.8326522392444781E-04   4.7265657488006072E-04   4.6228669679860787E-04   4.5215011233101809E-04
   4.4224147092302509E-04   4.3255554590549626E-04   4.2308723164869610E-04   4.1383154077915190E-04   4.0478360145797460E-04
   3.9593865471938811E-04   3.8729205186834877E-04   3.7883925193598895E-04   3.7057581919183925E-04   3.6249742071160426E-04
   3.5459982399940580E-04   3.4687889466341606E-04   3.3933059414371301E-04   3.3195097749139449E-04   3.2473619119775679E-04
   3.1768247107264732E-04   3.1078614017083226E-04   3.0404360676547732E-04   2.9745136236767510E-04   2.9100597979108978E-04
   2.8470411126073179E-04   2.7854248656496242E-04   2.7251791124973990E-04   2.6662726485426880E-04   2.6086749918710270E-04
   2.5523563664184697E-04   2.4972876855162182E-04   2.4434405358138452E-04   2.3907871615736230E-04   2.3393004493268060E-04
   2.2889539128850047E-04   2.2397216786978192E-04   2.1915784715498366E-04   2.1444996005889029E-04   2.0984609456786357E-04
   2.0534389440677155E-04   2.0094105773691629E-04   1.9663533588422030E-04   1.9242453209704247E-04   1.8830650033291340E-04
   1.8427914407355460E-04   1.8034041516755672E-04   1.7648831270005030E-04   1.7272088188880199E-04   1.6903621300609601E-04
   1.6543244032583685E-04   1.6190774109528129E-04   1.5846033453085814E-04   1.5508848083748761E-04   1.5179048025091058E-04
   1.4856467210243548E-04   1.4540943390565548E-04   1.4232318046456836E-04   1.3930436300265152E-04   1.3635146831237482E-04
   1.3346301792469174E-04   1.3063756729805542E-04   1.2787370502647923E-04   1.2517005206623172E-04   1.2252526098070497E-04
   1.1993801520305061E-04   1.1740702831615715E-04   1.1493104334958099E-04   1.1250883209300804E-04   1.1013919442589622E-04
   1.0782095766287430E-04   1.0555297591457762E-04   1.0333412946351555E-04   1.0116332415465050E-04   9.9039490800321308E-05
   9.6961584599182413E-05   9.4928584568836882E-05   9.2939492991821857E-05   9.0993334874655228E-05   8.9089157419616107E-05
   8.7226029508971379E-05   8.5403041201346787E-05   8.3619303239967913E-05   8.1873946572471495E-05   8.0166121882039879E-05
   7.8494999129559073E-05   7.6859767106574704E-05   7.5259632998759521E-05   7.3693821959667729E-05   7.2161576694516227E-05
   7.0662157053762053E-05   6.9194839636249812E-05   6.7758917401687302E-05   6.6353699292246593E-05   6.4978509863058851E-05
   6.3632688921401795E-05   6.2315591174367640E-05   6.1026585884818520E-05   5.9765056535419983E-05   5.8530400500578614E-05
   5.7322028726074055E-05   5.6139365416227312E-05   5.4981847728404504E-05   5.3848925474699517E-05   5.2740060830612499E-05
   5.1654728050563722E-05   5.0592413190084177E-05   4.9552613834514023E-05   4.8534838834066966E-05   4.7538608045098793E-05
   4.6563452077439714E-05   4.5608912047641872E-05   4.4674539338007943E-05   4.3759895361253942E-05   4.2864551330685615E-05
   4.1988088035741076E-05   4.1130095622790462E-05   4.0290173381051976E-05   3.9467929533515169E-05   3.8662981032742472E-05
   3.7874953361443030E-05   3.7103480337697542E-05   3.6348203924727356E-05   3.5608774045102545E-05   3.4884848399278090E-05
   3.4176092288360459E-05   3.3482178441000903E-05   3.2802786844322109E-05   3.2137604578776142E-05   3.1486325656848184E-05
   3.0848650865508367E-05   3.0224287612327374E-05   2.9612949775166111E-05   2.9014357555358989E-05   2.8428237334302059E-05
   2.7854321533372425E-05   2.7292348477094490E-05   2.6742062259478683E-05   2.6203212613459553E-05   2.5675554783355893E-05
   2.5158849400285085E-05   2.4652862360459426E-05   2.4157364706299651E-05   2.3672132510294373E-05   2.3196946761546331E-05
   2.2731593254937119E-05   2.2275862482851976E-05   2.1829549529402140E-05   2.1392453967088823E-05   2.0964379755847111E-05
   2.0545135144418413E-05   2.0134532573993075E-05   1.9732388584070933E-05   1.9338523720489482E-05   1.8952762445565404E-05
   1.8574933050302584E-05   1.8204867568616052E-05   1.7842401693527240E-05   1.7487374695280405E-05   1.7139629341339394E-05
   1.6799011818217255E-05   1.6465371655097830E-05   1.6138561649205931E-05   1.5818437792887286E-05   1.5504859202354903E-05
